Format=7,5610,,,Right Foot,,,,,,,,,,,5611,,,Left Foot,,,,,,,,,,,5617,,,Lumbar,,,,,,,,,,
Time,Accelerometer,,,Gyroscope,,,Magnetometer,,,Barometer,Orientation,,,,Accelerometer,,,Gyroscope,,,Magnetometer,,,Barometer,Orientation,,,,Accelerometer,,,Gyroscope,,,Magnetometer,,,Barometer,Orientation,,,
,X,Y,Z,X,Y,Z,X,Y,Z,,S,X,Y,Z,X,Y,Z,X,Y,Z,X,Y,Z,,S,X,Y,Z,X,Y,Z,X,Y,Z,X,Y,Z,,S,X,Y,Z
1588062524153838,10.023849,-0.421941,-0.442126,0.001862,-0.013886,0.030141,-35.987427,-9.456989,-3.485036,4636849264373268500.000000,0.577992,0.382475,-0.607698,0.387739,10.128232,0.750025,-0.505877,-0.001196,-0.010681,0.015424,-31.626981,-11.938841,2.826274,4636848512753991700.000000,0.472197,0.570134,-0.445693,0.503324,0.321552,-0.030654,-9.904364,-0.001250,0.003386,0.000886,-27.063542,-7.356361,13.988597,4636847546386350100.000000,0.016821,0.134715,-0.990736,0.003216
1588062524161650,9.980340,-0.389554,-0.456990,0.008778,-0.013886,0.030976,-35.952871,-9.415649,-3.637806,4636849264373268500.000000,0.577952,0.382472,-0.607729,0.387754,10.102358,0.767604,-0.507339,0.002350,-0.009271,0.014142,-31.801271,-11.826020,2.875575,4636848512753991700.000000,0.472163,0.570139,-0.445715,0.503330,0.347771,-0.004162,-9.900204,-0.001068,0.004977,0.001068,-27.207661,-7.598130,13.886621,4636847546386350100.000000,0.016827,0.134712,-0.990737,0.003215
1588062524169462,9.966556,-0.339150,-0.481404,0.009846,-0.014118,0.031441,-35.794178,-9.510153,-3.616544,4636849240996399100.000000,0.577909,0.382470,-0.607759,0.387771,10.095523,0.813504,-0.516619,0.004401,-0.007007,0.012220,-31.779283,-11.644883,2.825766,4636848512753991700.000000,0.472132,0.570147,-0.445725,0.503341,0.343889,-0.010126,-9.920456,-0.002840,0.002683,0.000182,-27.366355,-7.722842,13.774395,4636847546386350100.000000,0.016826,0.134713,-0.990737,0.003207
1588062524177274,9.985656,-0.334913,-0.503160,0.010914,-0.015187,0.032648,-35.688628,-9.643848,-3.500300,4636849156999086100.000000,0.577861,0.382470,-0.607792,0.387792,10.090152,0.865260,-0.526384,0.001795,-0.006409,0.014698,-31.690418,-11.747416,2.819418,4636848512753991700.000000,0.472104,0.570145,-0.445745,0.503353,0.321555,-0.002081,-9.884115,-0.002318,0.002136,0.000000,-27.464295,-7.526849,13.909633,4636847546386350100.000000,0.016822,0.134736,-0.990734,0.003201
1588062524185086,9.983000,-0.356671,-0.499430,0.012214,-0.016022,0.030976,-35.771422,-9.662442,-3.335787,4636849156999086100.000000,0.577811,0.382478,-0.607822,0.387811,10.077945,0.873563,-0.501971,0.000000,-0.004999,0.017090,-31.652828,-12.051614,2.843356,4636848512753991700.000000,0.472182,0.570039,-0.445889,0.503271,0.337642,-0.010125,-9.906163,-0.003022,0.003908,0.000000,-27.418117,-7.412266,13.940855,4636847546386350100.000000,0.016825,0.134737,-0.990733,0.003193
1588062524192898,9.962829,-0.371532,-0.451674,0.015047,-0.016951,0.031673,-35.828728,-9.710716,-3.277961,4636849156999086100.000000,0.577754,0.382492,-0.607850,0.387837,10.055000,0.850618,-0.488296,0.000000,-0.004614,0.017090,-31.497582,-12.044857,2.741803,4636848559981038600.000000,0.472156,0.570026,-0.445914,0.503289,0.321561,-0.012207,-9.912412,-0.000547,0.003387,0.000000,-27.334759,-7.468548,13.859870,4636847546386350100.000000,0.016825,0.134738,-0.990733,0.003194
1588062524200710,9.916655,-0.393291,-0.449019,0.019923,-0.019830,0.034645,-35.828728,-9.590756,-3.347483,4636849156999086100.000000,0.577679,0.382514,-0.607883,0.387877,10.023749,0.813998,-0.472190,-0.000470,-0.007818,0.015681,-31.328608,-11.778229,2.673421,4636848620128174100.000000,0.472129,0.570021,-0.445942,0.503296,0.307268,-0.012207,-9.902287,-0.000886,0.003204,0.000000,-27.249300,-7.543883,13.934312,4636847546386350100.000000,0.016825,0.134739,-0.990733,0.003194
1588062524208522,9.901264,-0.400191,-0.444773,0.024288,-0.018391,0.036317,-35.812808,-9.399700,-3.357036,4636849156999086100.000000,0.577598,0.382540,-0.607907,0.387934,10.036909,0.793481,-0.462409,-0.001068,-0.008674,0.013886,-31.357354,-11.720059,2.716363,4636848620128174100.000000,0.472105,0.570019,-0.445969,0.503297,0.335551,-0.022329,-9.849595,-0.000182,0.003204,0.000000,-27.234716,-7.556383,14.104889,4636847546386350100.000000,0.016824,0.134740,-0.990733,0.003196
1588062524216334,9.959646,-0.387984,-0.466534,0.032601,-0.019227,0.036781,-35.771403,-9.415619,-3.357036,4636849156999086100.000000,0.577502,0.382585,-0.607922,0.388009,10.087205,0.788116,-0.481454,-0.002007,-0.007947,0.012477,-31.516024,-11.767937,2.819371,4636848620128174100.000000,0.472087,0.570016,-0.445993,0.503295,0.321565,-0.004172,-9.889773,-0.001771,0.003204,0.000000,-27.234716,-7.556383,14.055203,4636847546386350100.000000,0.016824,0.134741,-0.990733,0.003192
1588062524224146,9.997864,-0.370474,-0.478741,0.040078,-0.019459,0.039846,-35.847291,-9.472945,-3.375599,4636849156999086100.000000,0.577389,0.382640,-0.607930,0.388109,10.113093,0.770546,-0.488296,-0.002735,-0.009015,0.011151,-31.642513,-11.692845,2.875583,4636848620128174100.000000,0.472071,0.570016,-0.446018,0.503287,0.307271,-0.010121,-9.869840,-0.002136,0.003204,0.000000,-27.305566,-7.637353,13.805725,4636847546386350100.000000,0.016824,0.134742,-0.990733,0.003187
1588062524231958,9.997864,-0.328550,-0.490948,0.045698,-0.020063,0.044862,-35.914181,-9.472945,-3.463700,4636849156999086100.000000,0.577260,0.382697,-0.607939,0.388233,10.114573,0.751495,-0.499024,-0.001198,-0.010083,0.011280,-31.583141,-11.597034,2.917015,4636848620128174100.000000,0.472050,0.570022,-0.446042,0.503280,0.305185,-0.022329,-9.883824,-0.000365,0.003204,0.000000,-27.320169,-7.654042,13.676774,4636847546386350100.000000,0.016824,0.134744,-0.990733,0.003189
1588062524239770,10.016415,-0.280770,-0.508454,0.043239,-0.017140,0.044167,-35.895629,-9.510049,-3.518945,4636849156999086100.000000,0.577142,0.382745,-0.607943,0.388354,10.118456,0.755378,-0.512711,0.001877,-0.009743,0.010681,-31.446270,-11.634574,2.978606,4636848620128174100.000000,0.472024,0.570033,-0.446057,0.503278,0.345660,-0.044652,-9.898115,-0.001771,0.002319,0.000000,-27.320169,-7.583211,13.660085,4636847546386350100.000000,0.016820,0.134745,-0.990732,0.003184
1588062524247582,10.096564,-0.288720,-0.550375,0.035762,-0.009150,0.040962,-35.810179,-9.678297,-3.461037,4636849156999086100.000000,0.577059,0.382772,-0.607936,0.388462,10.126783,0.769066,-0.518073,0.006149,-0.008076,0.012558,-31.515972,-11.644953,2.930352,4636848620128174100.000000,0.471988,0.570045,-0.446066,0.503290,0.323660,-0.058948,-9.900204,-0.001251,0.002136,0.000000,-27.320169,-7.568590,13.821975,4636847546386350100.000000,0.016816,0.134746,-0.990732,0.003182
1588062524255394,10.147001,-0.335933,-0.587568,0.028054,-0.006318,0.037758,-35.761819,-9.802545,-3.527940,4636849156999086100.000000,0.576999,0.382785,-0.607929,0.388548,10.103857,0.801226,-0.546358,0.010890,-0.005601,0.013078,-31.680006,-11.559514,2.820501,4636848620128174100.000000,0.471945,0.570060,-0.446061,0.503317,0.317392,-0.040803,-9.971022,-0.003724,0.001251,0.001770,-27.188650,-7.700109,14.017272,4636847546386350100.000000,0.016809,0.134740,-0.990733,0.003170
1588062524263206,10.143318,-0.405493,-0.549333,0.019046,-0.001673,0.034785,-35.847266,-9.786655,-3.527940,4636849156999086100.000000,0.577964,0.381217,-0.608901,0.387132,10.083315,0.847670,-0.552311,0.014824,-0.002267,0.011150,-31.700842,-11.474067,2.667767,4636848667266718700.000000,0.471903,0.570080,-0.446039,0.503355,0.337626,-0.036622,-9.955306,-0.000732,0.003724,0.003021,-27.151356,-7.798102,14.050721,4636847546386350100.000000,0.016811,0.134730,-0.990735,0.003171
1588062524271018,10.079640,-0.404463,-0.551980,0.008365,0.000926,0.032418,-35.895651,-9.692241,-3.530587,4636849156999086100.000000,0.577959,0.381187,-0.608900,0.387170,10.094033,0.843800,-0.508841,0.017898,0.002214,0.012687,-31.535300,-11.501156,2.647809,4636848727502356500.000000,0.471858,0.570093,-0.446005,0.503411,0.331692,-0.036622,-9.898457,0.000885,0.005158,-0.000336,-27.149265,-7.812738,13.969799,4636847546386350100.000000,0.016817,0.134732,-0.990734,0.003178
1588062524278830,10.009044,-0.360929,-0.556247,-0.002548,0.004504,0.029908,-35.812847,-9.539869,-3.518973,4636849156999086100.000000,0.577983,0.381133,-0.608903,0.387182,10.113089,0.819385,-0.493655,0.021233,0.008285,0.013886,-31.408756,-11.709577,2.867546,4636848727502356500.000000,0.471815,0.570099,-0.445957,0.503488,0.319485,-0.046737,-9.877882,-0.000702,0.001800,-0.000183,-27.159380,-7.741933,13.953062,4636847546386350100.000000,0.016811,0.134734,-0.990734,0.003178
1588062524286642,9.969178,-0.341807,-0.531835,-0.012907,0.006267,0.029908,-35.755486,-9.438553,-3.445133,4636849180268990500.000000,0.578027,0.381053,-0.608918,0.387172,10.141370,0.784255,-0.484429,0.021962,0.010213,0.013417,-31.467985,-11.853389,2.942589,4636848727502356500.000000,0.471774,0.570103,-0.445902,0.503571,0.307277,-0.008370,-9.946594,-0.002838,0.002838,-0.000885,-27.090668,-7.656481,13.953062,4636847546386350100.000000,0.016810,0.134738,-0.990734,0.003170
1588062524294454,9.984638,-0.333872,-0.507420,-0.015239,0.009150,0.031065,-35.771356,-9.314249,-3.454695,4636849264373268500.000000,0.578080,0.380961,-0.608931,0.387164,10.184840,0.756859,-0.463881,0.020894,0.009613,0.012818,-31.712120,-11.815885,2.789867,4636848633252754400.000000,0.471736,0.570107,-0.445849,0.503648,0.335526,0.000000,-9.870218,-0.001435,0.004089,0.000702,-27.146817,-7.500242,13.942949,4636847546386350100.000000,0.016813,0.134737,-0.990734,0.003168
1588062524302266,9.934183,-0.294609,-0.480364,-0.007157,0.007477,0.036174,-35.828728,-9.348621,-3.412391,4636849264373268500.000000,0.578108,0.380878,-0.608944,0.387183,10.216103,0.756859,-0.474595,0.019826,0.011488,0.012349,-31.811618,-11.767937,2.673421,4636848512753991700.000000,0.471704,0.570106,-0.445794,0.503728,0.351919,-0.010112,-9.942384,-0.004607,0.001618,0.000183,-27.292931,-7.551828,13.870070,4636847546386350100.000000,0.016809,0.134737,-0.990734,0.003153
1588062524310078,9.932550,-0.256355,-0.459605,-0.001674,0.006783,0.039521,-35.812866,-9.491451,-3.259377,4636849264373268500.000000,0.578122,0.380800,-0.608954,0.387222,10.219092,0.719367,-0.482940,0.018758,0.012949,0.011281,-31.661899,-11.730444,2.807323,4636848512753991700.000000,0.471680,0.570103,-0.445736,0.503806,0.313572,-0.002097,-9.829803,-0.002687,0.002838,0.000000,-27.188731,-7.629253,13.855403,4636847546386350100.000000,0.016808,0.134738,-0.990734,0.003145
1588062524317890,9.963883,-0.277495,-0.488296,0.002081,0.004041,0.039521,-35.771340,-9.539899,-3.299013,4636849241130854400.000000,0.578124,0.380735,-0.608966,0.387266,10.178613,0.682118,-0.492154,0.019564,0.011281,0.010213,-31.494236,-11.644999,3.069645,4636848512753991700.000000,0.471653,0.570106,-0.445677,0.503881,0.305185,0.010110,-9.883427,-0.000367,0.007628,0.000000,-27.090701,-7.641834,13.936285,4636847546386350100.000000,0.016824,0.134739,-0.990733,0.003149
1588062524325702,9.978733,-0.369867,-0.480370,0.012850,0.003204,0.040446,-35.847223,-9.420103,-3.445130,4636849156999086100.000000,0.578107,0.380693,-0.608964,0.387336,10.096162,0.695822,-0.518065,0.023706,0.010681,0.009145,-31.414143,-11.559552,3.046915,4636848512753991700.000000,0.471618,0.570119,-0.445609,0.503958,0.305185,-0.008013,-9.930535,0.000000,0.006776,-0.000885,-27.076021,-7.571062,14.104717,4636847546386350100.000000,0.016837,0.134744,-0.990732,0.003154
1588062524333514,9.997864,-0.435182,-0.451674,0.026878,0.003204,0.044949,-35.914181,-9.212952,-3.433568,4636849156999086100.000000,0.578061,0.380672,-0.608947,0.387449,10.018425,0.733297,-0.514211,0.026704,0.011150,0.008545,-31.405148,-11.511581,2.729545,4636848512753991700.000000,0.471578,0.570138,-0.445532,0.504041,0.295076,-0.022316,-9.957044,0.000885,0.003755,-0.000184,-27.146784,-7.556383,14.055301,4636847546386350100.000000,0.016838,0.134746,-0.990732,0.003161
1588062524341326,9.992583,-0.448038,-0.451674,0.035018,0.002742,0.048211,-35.895697,-9.189880,-3.378160,4636849156999086100.000000,0.577998,0.380663,-0.608925,0.387589,10.019273,0.786626,-0.484447,0.025299,0.012686,0.006672,-31.553315,-11.623979,2.695858,4636848559831538700.000000,0.471548,0.570155,-0.445452,0.504122,0.272763,-0.064845,-9.880381,0.000184,0.003204,0.000000,-27.161472,-7.697887,13.886902,4636847546386350100.000000,0.016837,0.134747,-0.990732,0.003165
1588062524349138,9.973449,-0.390637,-0.449033,0.032332,0.000606,0.045556,-35.812880,-9.332738,-3.473185,4636849156999086100.000000,0.577937,0.380657,-0.608907,0.387713,10.046693,0.814886,-0.485286,0.021626,0.013886,0.005677,-31.727877,-11.842854,3.020078,4636848620128174100.000000,0.471530,0.570164,-0.445375,0.504196,0.308992,-0.063137,-9.873689,-0.001769,0.001436,0.000000,-27.222115,-7.798037,13.784652,4636847546386350100.000000,0.016830,0.134748,-0.990732,0.003160
1588062524356950,9.976097,-0.401229,-0.436818,0.024245,-0.001300,0.047603,-35.755486,-9.362628,-3.500427,4636849156999086100.000000,0.577881,0.380631,-0.608908,0.387819,10.046693,0.836959,-0.502008,0.019695,0.011545,0.007477,-31.738411,-11.938841,3.198340,4636848620128174100.000000,0.471509,0.570171,-0.445309,0.504265,0.327498,-0.040825,-9.916213,-0.003021,0.002837,0.000000,-27.234716,-7.671255,13.921540,4636847546386350100.000000,0.016829,0.134749,-0.990732,0.003152
1588062524364762,10.004175,-0.439467,-0.419322,0.019921,-0.001673,0.045236,-35.771358,-9.228797,-3.357036,4636849156999086100.000000,0.577834,0.380602,-0.608914,0.387909,10.068095,0.824753,-0.472245,0.020763,0.009950,0.007009,-31.727872,-11.863934,3.059227,4636848573066064900.000000,0.471484,0.570184,-0.445244,0.504332,0.329600,-0.026517,-9.904407,-0.004089,0.002320,0.000000,-27.234716,-7.571095,13.953062,4636847546386350100.000000,0.016827,0.134750,-0.990732,0.003139
1588062524372574,10.094915,-0.439467,-0.403863,0.024051,0.001389,0.042032,-35.828728,-9.265830,-3.378198,4636849156999086100.000000,0.577793,0.380585,-0.608902,0.388006,10.106222,0.833945,-0.457024,0.019959,0.012686,0.005005,-31.775871,-11.693039,2.832799,4636848512753991700.000000,0.471469,0.570194,-0.445172,0.504399,0.319494,-0.024415,-9.920415,-0.003388,0.001252,0.001768,-27.234716,-7.485643,13.942957,4636847546386350100.000000,0.016820,0.134744,-0.990733,0.003128
1588062524380386,10.173042,-0.444755,-0.464894,0.029214,0.005483,0.038827,-35.828728,-9.415564,-3.452051,4636849156999086100.000000,0.577759,0.380581,-0.608868,0.388114,10.125286,0.833122,-0.485277,0.015350,0.013886,0.003204,-31.700986,-11.559591,2.765732,4636848512753991700.000000,0.471470,0.570196,-0.445102,0.504457,0.337601,-0.024415,-9.904410,-0.000552,0.001068,0.001252,-27.305448,-7.541661,13.950959,4636847546386350100.000000,0.016811,0.134741,-0.990733,0.003128
1588062524388198,10.131134,-0.458594,-0.507424,0.025547,0.002368,0.035160,-35.812866,-9.438578,-3.445131,4636849156999086100.000000,0.577728,0.380583,-0.608841,0.388200,10.121450,0.789646,-0.491321,0.012218,0.013418,0.005076,-31.535448,-11.549015,2.764221,4636848512753991700.000000,0.471474,0.570190,-0.445044,0.504512,0.321599,-0.014311,-9.970932,0.001768,0.001952,0.000184,-27.320169,-7.485654,14.023791,4636847546386350100.000000,0.016805,0.134741,-0.990733,0.003137
1588062524396010,10.070101,-0.431538,-0.493582,0.019282,0.003667,0.030051,-35.736986,-9.295750,-3.454695,4636849156999086100.000000,0.577718,0.380581,-0.608813,0.388262,10.102384,0.753029,-0.458536,0.016092,0.013286,0.004670,-31.553186,-11.559613,2.813847,4636848512753991700.000000,0.471470,0.570192,-0.444977,0.504572,0.317392,-0.002105,-9.955348,0.001252,0.007440,0.000000,-27.188832,-7.470931,14.038514,4636847457524010000.000000,0.016820,0.134743,-0.990733,0.003147
1588062524403822,10.003772,-0.410775,-0.520642,0.009668,0.004878,0.026241,-35.654170,-9.228797,-3.454695,4636849203505452000.000000,0.577730,0.380564,-0.608791,0.388294,10.090177,0.759170,-0.467709,0.020295,0.012951,0.002004,-31.690418,-11.548997,2.868740,4636848512753991700.000000,0.471461,0.570207,-0.444897,0.504634,0.317392,0.000000,-9.878325,0.000184,0.005894,0.000000,-27.161472,-7.612348,14.200134,4636847439012167700.000000,0.016829,0.134744,-0.990733,0.003153
1588062524411634,9.920974,-0.426256,-0.541407,0.000749,0.003204,0.025030,-35.612639,-9.228797,-3.454695,4636849371747450900.000000,0.577754,0.380533,-0.608785,0.388299,10.110036,0.782793,-0.472263,0.018892,0.013152,0.002737,-31.546124,-11.709263,2.874084,4636848512753991700.000000,0.471454,0.570217,-0.444822,0.504695,0.347695,-0.020202,-9.883784,-0.000884,0.003573,0.000000,-27.222078,-7.712541,14.324741,4636847439012167700.000000,0.016830,0.134745,-0.990732,0.003153
1588062524419446,9.855660,-0.359946,-0.507430,-0.005659,0.003204,0.027397,-35.707000,-9.175986,-3.454695,4636849371747450900.000000,0.577783,0.380482,-0.608792,0.388294,10.165726,0.758379,-0.451674,0.017558,0.013084,0.002136,-31.360819,-11.928199,2.838199,4636848512753991700.000000,0.471451,0.570227,-0.444748,0.504752,0.364114,-0.024415,-9.928396,-0.001952,0.000553,0.000000,-27.174119,-7.656588,14.252802,4636847439012167700.000000,0.016820,0.134746,-0.990732,0.003147
1588062524427258,9.837518,-0.285059,-0.488296,-0.009758,0.001588,0.030832,-35.875251,-8.984649,-3.475812,4636849371747450900.000000,0.577810,0.380416,-0.608814,0.388285,10.187839,0.744652,-0.451674,0.017691,0.008344,0.001669,-31.505071,-11.949494,2.826029,4636848512753991700.000000,0.471441,0.570246,-0.444682,0.504797,0.346026,-0.024415,-9.906532,-0.001253,0.004418,0.000884,-27.090786,-7.571148,14.153048,4636847439012167700.000000,0.016824,0.134744,-0.990733,0.003146
1588062524435070,9.899551,-0.274837,-0.475095,-0.004330,-0.004042,0.034874,-35.996994,-9.055934,-3.549714,4636849371747450900.000000,0.577809,0.380361,-0.608847,0.388289,10.175633,0.723286,-0.440991,0.017090,0.006743,0.001068,-31.727808,-11.778610,2.832875,4636848512753991700.000000,0.471430,0.570269,-0.444619,0.504837,0.311514,-0.024415,-9.839617,-0.000185,0.002690,0.000185,-27.076021,-7.627067,14.146271,4636847439012167700.000000,0.016821,0.134744,-0.990733,0.003148
1588062524442882,9.993570,-0.365550,-0.437811,0.008052,-0.003666,0.038078,-35.971598,-9.367011,-3.519042,4636849371747450900.000000,0.577785,0.380326,-0.608864,0.388331,10.147406,0.690482,-0.443280,0.018025,0.006676,0.001535,-31.701108,-11.645103,2.723018,4636848512753991700.000000,0.471417,0.570293,-0.444555,0.504879,0.284989,-0.034513,-9.897645,-0.001767,0.000369,0.000000,-27.146705,-7.571150,14.057500,4636847439012167700.000000,0.016810,0.134746,-0.990733,0.003143
1588062524450694,10.014362,-0.446397,-0.481366,0.029561,-0.006033,0.041513,-35.914181,-9.524094,-3.442488,4636849371747450900.000000,0.577719,0.380335,-0.608860,0.388427,10.114597,0.694295,-0.485243,0.019694,0.004273,0.000267,-31.535541,-11.634416,2.752002,4636848512753991700.000000,0.471398,0.570327,-0.444490,0.504916,0.260575,-0.046720,-9.932608,-0.001253,0.002651,0.002651,-27.232157,-7.415013,13.957732,4636847439012167700.000000,0.016808,0.134736,-0.990734,0.003141
1588062524458506,9.975111,-0.406170,-0.489959,0.044717,-0.008315,0.044862,-35.895727,-9.381247,-3.424034,4636849371747450900.000000,0.577620,0.380374,-0.608842,0.388564,10.091711,0.729388,-0.507371,0.018893,0.004273,-0.002604,-31.446270,-11.682485,2.916796,4636848512753991700.000000,0.471386,0.570364,-0.444420,0.504946,0.296736,-0.028639,-9.916636,-0.001068,0.005854,0.001438,-27.246923,-7.385479,13.940855,4636847439012167700.000000,0.016818,0.134732,-0.990734,0.003142
1588062524466318,9.950006,-0.340143,-0.430587,0.048067,-0.007016,0.044632,-35.847179,-9.332700,-3.357036,4636849371747450900.000000,0.577519,0.380419,-0.608817,0.388710,10.060431,0.756859,-0.468474,0.019426,0.001470,-0.002270,-31.483638,-11.645118,2.930563,4636848512753991700.000000,0.471368,0.570407,-0.444355,0.504971,0.325374,-0.014320,-9.882128,-0.002835,0.003759,0.000185,-27.176261,-7.526805,14.021613,4636847439012167700.000000,0.016820,0.134732,-0.990734,0.003135
1588062524474130,10.024213,-0.402144,-0.372459,0.050603,-0.004419,0.043564,-35.914181,-9.399700,-3.357036,4636849325394136100.000000,0.577422,0.380469,-0.608780,0.388864,10.025345,0.746185,-0.416585,0.021497,-0.001202,-0.002936,-31.563746,-11.597034,2.916774,4636848512753991700.000000,0.471342,0.570461,-0.444290,0.504993,0.339695,-0.002113,-9.865694,-0.002321,0.001438,0.000000,-26.959578,-7.697709,14.048609,4636847439012167700.000000,0.016814,0.134733,-0.990734,0.003128
1588062524481942,10.109395,-0.488296,-0.455280,0.060739,-0.001760,0.042726,-35.914181,-9.381252,-3.335952,4636849180180586500.000000,0.577317,0.380539,-0.608720,0.389043,10.019213,0.764468,-0.413519,0.017493,-0.001868,-0.007676,-31.642328,-11.671756,2.978606,4636848512753991700.000000,0.471333,0.570516,-0.444224,0.504997,0.361997,0.000000,-9.893866,-0.000370,0.002835,0.000000,-27.048556,-7.727286,13.969964,4636847439012167700.000000,0.016812,0.134735,-0.990734,0.003129
1588062524489754,10.052676,-0.469865,-0.520610,0.060403,-0.003812,0.042035,-35.914181,-9.295818,-3.262010,4636849264373268500.000000,0.577209,0.380614,-0.608664,0.389218,10.073375,0.832371,-0.432596,0.009217,-0.005206,-0.010681,-31.621045,-11.693227,2.887887,4636848512753991700.000000,0.471342,0.570568,-0.444173,0.504974,0.386406,-0.020184,-9.900204,0.000883,0.003204,0.000000,-27.277864,-7.585997,14.023707,4636847439012167700.000000,0.016810,0.134736,-0.990734,0.003136
1588062524497566,9.967227,-0.371252,-0.554599,0.038936,-0.002136,0.038139,-35.929977,-9.228797,-3.290013,4636849264373268500.000000,0.577143,0.380647,-0.608632,0.389334,10.134409,0.845383,-0.434131,0.001804,-0.008276,-0.011615,-31.494372,-11.522333,2.675037,4636848512753991700.000000,0.471365,0.570614,-0.444141,0.504929,0.410820,-0.004232,-9.930479,0.000185,0.000555,0.000000,-27.390810,-7.485741,14.199979,4636847439012167700.000000,0.016799,0.134737,-0.990734,0.003139
1588062524505378,9.908099,-0.258987,-0.565852,0.002474,-0.003518,0.031731,-35.987427,-9.265643,-3.396513,4636849264373268500.000000,0.577138,0.380615,-0.608648,0.389348,10.179435,0.796559,-0.427259,-0.000933,-0.010681,-0.013751,-31.515615,-11.500808,2.647363,4636848512753991700.000000,0.471393,0.570664,-0.444114,0.504870,0.364600,-0.030271,-9.946917,-0.002649,0.000883,0.000000,-27.264356,-7.541563,14.233832,4636847439012167700.000000,0.016790,0.134738,-0.990734,0.003130
1588062524513190,9.944725,-0.294890,-0.523962,-0.026494,-0.009467,0.027395,-35.953201,-9.399700,-3.540147,4636849241216286700.000000,0.577168,0.380537,-0.608716,0.389274,10.182515,0.726400,-0.459259,-0.000270,-0.012548,-0.015421,-31.604967,-11.671700,2.861747,4636848512753991700.000000,0.471421,0.570721,-0.444086,0.504805,0.323749,-0.036622,-9.878412,0.001209,0.007247,0.000000,-27.174184,-7.485761,14.072413,4636847439012167700.000000,0.016805,0.134739,-0.990734,0.003140
1588062524521002,9.970817,-0.401162,-0.473458,-0.036234,-0.013508,0.028987,-35.828728,-9.381282,-3.540147,4636849156999086100.000000,0.577201,0.380439,-0.608809,0.389174,10.147434,0.644741,-0.495170,0.008670,-0.015421,-0.015089,-31.572967,-11.730603,2.930607,4636848512753991700.000000,0.471423,0.570799,-0.444046,0.504749,0.317392,-0.006357,-9.914024,0.000371,0.004131,0.000000,-27.161472,-7.470931,13.877098,4636847439012167700.000000,0.016807,0.134741,-0.990733,0.003146
1588062524528814,9.961241,-0.444726,-0.463881,-0.030204,-0.016252,0.025405,-35.847135,-9.295842,-3.540147,4636849156999086100.000000,0.577224,0.380368,-0.608895,0.389076,10.114604,0.626368,-0.477631,0.022223,-0.016489,-0.014819,-31.531723,-11.682485,2.826079,4636848512753991700.000000,0.471392,0.570904,-0.443982,0.504715,0.297216,-0.030265,-9.874176,-0.001765,0.005853,0.000883,-27.222003,-7.470931,14.085318,4636847439012167700.000000,0.016817,0.134738,-0.990733,0.003143
1588062524536626,9.977013,-0.469139,-0.458624,-0.019589,-0.018240,0.023647,-35.914181,-9.194624,-3.521746,4636849156999086100.000000,0.577228,0.380329,-0.608966,0.388997,10.091735,0.673651,-0.453218,0.028373,-0.019423,-0.017422,-31.601035,-11.719807,2.819066,4636848512753991700.000000,0.471347,0.571031,-0.443906,0.504681,0.282892,-0.036622,-9.873668,-0.000371,0.003761,0.000186,-27.305319,-7.470931,14.297547,4636847439012167700.000000,0.016819,0.134739,-0.990733,0.003145
1588062524544438,10.042375,-0.490926,-0.442096,-0.000969,-0.022661,0.020525,-35.914181,-9.070101,-3.454695,4636849156999086100.000000,0.577200,0.380345,-0.609014,0.388948,10.044452,0.734685,-0.471453,0.025439,-0.023831,-0.020626,-31.653101,-11.805254,2.838299,4636848512753991700.000000,0.471308,0.571166,-0.443837,0.504625,0.280770,-0.026537,-9.916131,0.000000,0.001440,0.000000,-27.390766,-7.470931,14.250809,4636847439012167700.000000,0.016811,0.134740,-0.990733,0.003148
1588062524552250,10.071108,-0.495247,-0.446418,0.015874,-0.023729,0.020443,-35.895784,-9.104265,-3.473091,4636849156999086100.000000,0.577144,0.380401,-0.609038,0.388937,10.004741,0.763737,-0.560677,0.017768,-0.025636,-0.023830,-31.535683,-11.816082,2.777958,4636848512753991700.000000,0.471289,0.571296,-0.443779,0.504547,0.311022,-0.024415,-9.914535,0.000000,0.001951,0.000000,-27.335033,-7.612107,14.001899,4636847439012167700.000000,0.016805,0.134741,-0.990733,0.003150
1588062524560062,10.060602,-0.465583,-0.429886,0.018307,-0.024797,0.016171,-35.828728,-9.247182,-3.500750,4636849156999086100.000000,0.577088,0.380475,-0.609055,0.388921,9.997864,0.746203,-0.595938,0.012216,-0.027500,-0.024703,-31.483566,-11.767937,2.909607,4636848512753991700.000000,0.471282,0.571421,-0.443733,0.504453,0.307307,-0.024415,-9.932582,0.000000,0.003901,0.000882,-27.189063,-7.783025,13.801786,4636847439012167700.000000,0.016807,0.134739,-0.990734,0.003154
1588062524567874,10.001276,-0.411508,-0.452593,0.011968,-0.025865,0.013966,-35.812977,-9.314249,-3.338659,4636849156999086100.000000,0.577043,0.380541,-0.609081,0.388884,10.045807,0.753752,-0.529578,0.015614,-0.029442,-0.023965,-31.531723,-11.730647,3.173706,4636848512753991700.000000,0.471261,0.571554,-0.443687,0.504362,0.335433,-0.054663,-9.916661,-0.000882,0.007802,0.000186,-27.161472,-7.742159,13.921192,4636847439012167700.000000,0.016824,0.134740,-0.990733,0.003156
1588062524575686,9.919368,-0.322512,-0.503129,-0.003296,-0.028082,0.018159,-35.789614,-9.314249,-3.289961,4636849156999086100.000000,0.577009,0.380566,-0.609141,0.388816,10.145010,0.797251,-0.477645,0.020625,-0.027908,-0.025033,-31.494443,-11.645205,3.193255,4636848512753991700.000000,0.471235,0.571695,-0.443625,0.504281,0.341807,-0.030790,-9.902329,-0.000186,0.006781,0.000000,-27.161472,-7.727286,14.033720,4636847439012167700.000000,0.016837,0.134741,-0.990733,0.003161
1588062524583498,9.913328,-0.228525,-0.504836,-0.019227,-0.033342,0.018388,-35.948304,-9.314249,-3.357036,4636849156999086100.000000,0.576985,0.380562,-0.609237,0.388703,10.161234,0.812571,-0.458557,0.024761,-0.028567,-0.024238,-31.408998,-11.597034,3.033669,4636848512753991700.000000,0.471196,0.571844,-0.443558,0.504208,0.341807,-0.024415,-9.890123,-0.001764,0.003763,0.000000,-27.151392,-7.797853,13.970074,4636847439012167700.000000,0.016839,0.134742,-0.990733,0.003157
1588062524591310,9.974358,-0.347159,-0.457725,-0.012570,-0.033951,0.019227,-36.072876,-9.280146,-3.299322,4636849156999086100.000000,0.576949,0.380573,-0.609326,0.388607,10.093313,0.816338,-0.377126,0.033363,-0.028647,-0.023829,-31.435367,-11.671581,2.936008,4636848512753991700.000000,0.471137,0.572007,-0.443475,0.504150,0.361969,-0.004254,-9.877916,-0.001254,0.003204,0.000000,-27.219829,-7.742174,13.953062,4636847439012167700.000000,0.016839,0.134743,-0.990732,0.003156
1588062524599122,10.030144,-0.503126,-0.388015,0.022763,-0.033342,0.019227,-36.057144,-9.118843,-3.088473,4636849156999086100.000000,0.576862,0.380662,-0.609360,0.388596,10.064223,0.883336,-0.296740,0.038726,-0.024238,-0.030293,-31.632865,-11.805200,2.923533,4636848512753991700.000000,0.471087,0.572183,-0.443359,0.504100,0.346063,0.000000,-9.895948,-0.000186,0.002323,0.000882,-27.305273,-7.515620,14.023618,4636847439012167700.000000,0.016835,0.134741,-0.990733,0.003158
1588062524606934,10.056278,-0.515333,-0.391538,0.070362,-0.033951,0.019915,-35.997012,-9.021354,-3.127800,4636849156999086100.000000,0.576702,0.380858,-0.609324,0.388698,10.103042,0.973467,-0.386583,0.025606,-0.024294,-0.039111,-31.800921,-11.816132,2.978606,4636848512753991700.000000,0.471083,0.572349,-0.443249,0.504011,0.331728,0.000000,-9.890125,-0.000882,0.003018,0.001068,-27.189141,-7.470931,14.038514,4636847439012167700.000000,0.016834,0.134738,-0.990733,0.003157
1588062524614746,10.046693,-0.519677,-0.447328,0.097889,-0.032195,0.020367,-35.971703,-9.207964,-3.289928,4636849156999086100.000000,0.576504,0.381111,-0.609243,0.388870,10.144352,0.931816,-0.508023,0.006161,-0.025772,-0.041329,-31.742668,-11.767937,2.888126,4636848512753991700.000000,0.471125,0.572487,-0.443175,0.503881,0.349758,0.010079,-9.918234,-0.000186,0.003204,0.001068,-27.161472,-7.541484,14.119147,4636847439012167700.000000,0.016833,0.134735,-0.990734,0.003160
1588062524622558,10.054554,-0.495262,-0.486571,0.097425,-0.029299,0.010983,-35.929904,-9.399700,-3.357036,4636849156999086100.000000,0.576328,0.381382,-0.609142,0.389024,10.112422,0.789094,-0.533368,-0.000137,-0.024567,-0.036262,-31.535785,-11.805189,2.776402,4636848512753991700.000000,0.471173,0.572601,-0.443123,0.503752,0.323777,-0.028109,-9.954856,0.000000,0.003204,0.000186,-27.292501,-7.485829,14.216806,4636847439012167700.000000,0.016832,0.134735,-0.990734,0.003163
1588062524630370,10.083315,-0.478709,-0.538019,0.081018,-0.030059,0.003356,-35.971705,-9.363017,-3.396339,4636849156999086100.000000,0.576187,0.381635,-0.609055,0.389121,10.065787,0.720237,-0.528673,0.002465,-0.025499,-0.034372,-31.409025,-11.853389,2.873742,4636848465953033200.000000,0.471209,0.572719,-0.443072,0.503630,0.297240,-0.046699,-9.890706,-0.000882,0.003204,0.000000,-27.320169,-7.470931,14.233832,4636847439012167700.000000,0.016831,0.134737,-0.990733,0.003163
1588062524638182,10.096408,-0.485677,-0.583337,0.055844,-0.025100,-0.001604,-35.898468,-9.213085,-3.542766,4636849156999086100.000000,0.576102,0.381835,-0.608989,0.389155,10.064220,0.757478,-0.565294,0.002876,-0.023911,-0.040644,-31.398059,-11.890630,3.033375,4636848405379809300.000000,0.471260,0.572844,-0.443003,0.503500,0.323209,-0.018598,-9.875790,-0.001950,0.002323,0.000000,-27.058160,-7.470931,14.153215,4636847439012167700.000000,0.016828,0.134738,-0.990733,0.003158
1588062524645994,10.131265,-0.465619,-0.592070,0.032576,-0.017853,-0.008393,-35.838317,-9.171257,-3.510475,4636849156999086100.000000,0.576080,0.381988,-0.608931,0.389128,10.087066,0.805689,-0.585955,0.001068,-0.019829,-0.044397,-31.446270,-11.938841,3.045919,4636848405379809300.000000,0.471329,0.572965,-0.442921,0.503370,0.329600,-0.052507,-9.885864,-0.001255,0.002136,0.000000,-26.871802,-7.329882,14.126098,4636847439012167700.000000,0.016824,0.134739,-0.990733,0.003156
1588062524653806,10.070229,-0.416791,-0.664434,0.009229,-0.011673,-0.013124,-35.862751,-9.265436,-3.357036,4636849156999086100.000000,0.576114,0.382090,-0.608887,0.389045,10.113048,0.789733,-0.601911,0.003860,-0.020157,-0.043794,-31.483501,-11.901611,3.033362,4636848405379809300.000000,0.471391,0.573090,-0.442836,0.503245,0.339674,-0.061037,-9.867848,-0.001068,0.004781,0.000000,-26.904526,-7.300027,14.285156,4636847439012167700.000000,0.016829,0.134740,-0.990733,0.003156
1588062524661618,10.017046,-0.381045,-0.673151,-0.012894,-0.005875,-0.018616,-36.039743,-9.381389,-3.357036,4636849156999086100.000000,0.576204,0.382146,-0.608856,0.388905,10.088031,0.779702,-0.590671,0.011199,-0.021828,-0.042863,-31.494499,-11.853389,3.136332,4636848405379809300.000000,0.471431,0.573230,-0.442742,0.503131,0.331734,-0.061037,-9.924021,-0.000187,0.003578,0.000000,-27.048275,-7.511562,14.248773,4636847439012167700.000000,0.016830,0.134741,-0.990733,0.003158
1588062524669430,10.003095,-0.408946,-0.629554,-0.014344,0.001144,-0.020295,-36.231571,-9.280247,-3.317803,4636849156999086100.000000,0.576315,0.382193,-0.608809,0.388769,10.025425,0.804115,-0.570601,0.015557,-0.022431,-0.043053,-31.478173,-11.927827,3.155804,4636848405379809300.000000,0.471460,0.573379,-0.442640,0.503023,0.329600,-0.050963,-9.926752,0.000000,0.007612,0.000881,-27.206984,-7.697420,14.163313,4636847439012167700.000000,0.016846,0.134739,-0.990733,0.003164
1588062524677242,10.030121,-0.481317,-0.612984,-0.001070,0.006942,-0.020066,-36.179286,-9.189539,-3.173925,4636849156999086100.000000,0.576420,0.382260,-0.608729,0.388673,9.987233,0.812581,-0.624740,0.016349,-0.023826,-0.044862,-31.487623,-11.987084,3.052841,4636848405379809300.000000,0.471489,0.573535,-0.442534,0.502911,0.339672,-0.018614,-9.904475,0.000000,0.004139,0.000187,-27.234716,-7.586281,14.138309,4636847439012167700.000000,0.016849,0.134739,-0.990733,0.003168
1588062524685054,10.058900,-0.487435,-0.625191,0.013197,0.014419,-0.019913,-35.937767,-9.366522,-3.213130,4636849156999086100.000000,0.576521,0.382347,-0.608610,0.388623,9.978763,0.784430,-0.648571,0.018624,-0.026566,-0.043002,-31.446270,-11.864437,3.033330,4636848405379809300.000000,0.471504,0.573697,-0.442434,0.502799,0.311594,-0.012207,-9.900204,0.000881,0.004967,0.000000,-27.174289,-7.485884,14.055603,4636847439012167700.000000,0.016854,0.134741,-0.990732,0.003175
1588062524692866,10.069345,-0.423799,-0.634785,0.022431,0.022808,-0.022888,-35.737207,-9.558396,-3.375314,4636849156999086100.000000,0.576633,0.382449,-0.608454,0.388601,10.022858,0.762174,-0.549752,0.024342,-0.025912,-0.043380,-31.483472,-11.767937,3.130990,4636848405379809300.000000,0.471509,0.573869,-0.442320,0.502699,0.315255,-0.012207,-9.900204,0.000187,0.004460,0.000000,-27.161472,-7.470931,14.038514,4636847439012167700.000000,0.016858,0.134742,-0.990732,0.003180
1588062524700678,10.112952,-0.368833,-0.626952,0.021517,0.032730,-0.025024,-35.703973,-9.506180,-3.424212,4636849156999086100.000000,0.576773,0.382540,-0.608274,0.388587,10.097677,0.843461,-0.359758,0.030511,-0.019780,-0.049788,-31.600803,-11.842331,3.191446,4636848405379809300.000000,0.471522,0.574051,-0.442169,0.502612,0.337532,-0.002138,-9.900204,-0.002643,0.003391,0.000000,-27.221890,-7.541419,13.887469,4636847439012167700.000000,0.016859,0.134743,-0.990732,0.003173
1588062524708490,10.121706,-0.388868,-0.605992,0.016788,0.036847,-0.027617,-35.896578,-9.280324,-3.338769,4636849156999086100.000000,0.576933,0.382619,-0.608088,0.388561,10.132145,1.009030,-0.330728,0.022936,-0.014024,-0.056196,-31.616046,-12.013213,3.155841,4636848405379809300.000000,0.471575,0.574219,-0.442008,0.502513,0.351876,0.010068,-9.890136,-0.001442,0.000561,0.001762,-27.174306,-7.415425,13.925882,4636847439012167700.000000,0.016848,0.134737,-0.990733,0.003169
1588062524716302,10.072878,-0.414213,-0.624348,0.008782,0.044324,-0.030520,-36.146122,-9.171209,-3.289849,4636849156999086100.000000,0.577128,0.382676,-0.607893,0.388521,10.174626,1.072116,-0.517530,0.005058,-0.011889,-0.062604,-31.418624,-12.072573,3.100680,4636848405379809300.000000,0.471685,0.574360,-0.441863,0.502376,0.323814,-0.007926,-9.918197,-0.000187,0.000881,0.000375,-27.091005,-7.315011,14.021390,4636847439012167700.000000,0.016838,0.134737,-0.990733,0.003170
1588062524724114,10.044918,-0.345358,-0.591171,-0.008070,0.051800,-0.030437,-36.112217,-9.247053,-3.396157,4636849156999086100.000000,0.577365,0.382684,-0.607706,0.388453,10.240421,0.952696,-0.597627,-0.011983,-0.009288,-0.063438,-31.250417,-11.949976,3.095372,4636848405379809300.000000,0.471838,0.574466,-0.441745,0.502214,0.317392,-0.012207,-9.924619,0.000000,0.002830,0.000000,-27.146478,-7.440941,14.038514,4636847439012167700.000000,0.016836,0.134738,-0.990733,0.003173
1588062524731926,10.096354,-0.292032,-0.599939,-0.033103,0.057680,-0.037458,-35.971780,-9.314249,-3.561009,4636849156999086100.000000,0.577665,0.382643,-0.607534,0.388318,10.227677,0.815769,-0.506867,-0.014582,-0.007013,-0.058423,-31.239282,-11.816230,3.040698,4636848405379809300.000000,0.471992,0.574553,-0.441640,0.502063,0.327459,-0.032340,-9.924619,-0.000881,0.004085,0.000000,-27.221870,-7.611859,13.887519,4636847439012167700.000000,0.016839,0.134740,-0.990733,0.003174
1588062524739738,10.149566,-0.394070,-0.543293,-0.044634,0.058136,-0.042114,-35.948069,-9.332497,-3.616952,4636849156999086100.000000,0.577989,0.382586,-0.607371,0.388145,10.150716,0.823740,-0.462291,-0.010403,-0.004086,-0.062650,-31.393741,-11.842253,2.983915,4636848405379809300.000000,0.472149,0.574650,-0.441511,0.501917,0.319535,-0.036622,-9.914554,-0.001068,0.004273,0.000000,-27.305174,-7.581443,13.774881,4636847439012167700.000000,0.016843,0.134741,-0.990733,0.003173
1588062524747550,10.166160,-0.456889,-0.468267,-0.041741,0.061185,-0.045391,-36.072876,-9.433596,-3.540147,4636849156999086100.000000,0.578322,0.382538,-0.607192,0.387977,10.058369,0.868318,-0.513242,-0.019784,-0.000139,-0.073284,-31.563569,-11.975994,3.038582,4636848452064833500.000000,0.472354,0.574739,-0.441370,0.501745,0.337520,-0.046686,-9.902347,-0.000188,0.003392,0.000881,-27.259786,-7.357252,13.828189,4636847439012167700.000000,0.016842,0.134739,-0.990733,0.003176
1588062524755362,10.146140,-0.473484,-0.439467,-0.032585,0.067137,-0.052183,-36.054642,-9.558396,-3.519308,4636849156999086100.000000,0.578664,0.382518,-0.606976,0.387825,10.020684,0.822678,-0.566847,-0.030697,0.001068,-0.075049,-31.604967,-12.024292,3.190895,4636848512753991700.000000,0.472590,0.574809,-0.441244,0.501554,0.321680,-0.028703,-9.880077,0.000881,0.005846,0.000188,-27.176480,-7.372615,14.004211,4636847439012167700.000000,0.016851,0.134739,-0.990733,0.003184
1588062524763174,10.120755,-0.458671,-0.436862,-0.027387,0.071865,-0.055772,-35.971797,-9.524532,-3.424253,4636849156999086100.000000,0.579016,0.382510,-0.606736,0.387683,10.039792,0.813110,-0.541912,-0.032184,0.001532,-0.074955,-31.535988,-11.950007,3.302900,4636848512753991700.000000,0.472830,0.574876,-0.441120,0.501361,0.317392,-0.034477,-9.895913,-0.001573,0.004648,0.000000,-27.221845,-7.526349,14.038514,4636847439012167700.000000,0.016857,0.134740,-0.990732,0.003182
1588062524770986,10.168767,-0.442071,-0.435073,-0.031276,0.077818,-0.058663,-35.895948,-9.399700,-3.377873,4636849156999086100.000000,0.579392,0.382492,-0.606483,0.387535,10.057303,0.923486,-0.500504,-0.032369,0.003993,-0.078439,-31.377303,-11.816252,3.205811,4636848512753991700.000000,0.473081,0.574942,-0.440984,0.501167,0.317392,-0.046683,-9.900204,-0.000376,0.004273,-0.000880,-27.435929,-7.636867,13.887605,4636847439012167700.000000,0.016860,0.134795,-0.990725,0.003185
1588062524778798,10.153149,-0.454277,-0.476896,-0.038595,0.082318,-0.067136,-35.813110,-9.433540,-3.472916,4636849156999086100.000000,0.579801,0.382471,-0.606219,0.387357,10.065804,1.023822,-0.516415,-0.040678,0.006873,-0.080899,-31.287575,-11.805064,3.088473,4636848466102424600.000000,0.473361,0.574992,-0.440854,0.500961,0.327453,-0.018649,-9.920325,0.000000,0.004273,-0.000188,-27.478865,-7.583620,13.935885,4636847439012167700.000000,0.016863,0.134822,-0.990721,0.003189
1588062524786610,10.082512,-0.453473,-0.530123,-0.050869,0.086292,-0.071864,-35.755486,-9.540181,-3.540147,4636849156999086100.000000,0.580246,0.382426,-0.605957,0.387144,10.048295,1.011116,-0.526520,-0.050063,0.007013,-0.081924,-31.319391,-11.927627,3.093776,4636848405379809300.000000,0.473663,0.575026,-0.440739,0.500736,0.339659,-0.002148,-9.924619,0.000000,0.005153,0.000000,-27.277684,-7.488118,14.103948,4636847439012167700.000000,0.016869,0.134823,-0.990721,0.003193
1588062524794422,10.031883,-0.415052,-0.528512,-0.068801,0.085680,-0.079412,-35.771101,-9.457329,-3.540147,4636849156999086100.000000,0.580727,0.382360,-0.605712,0.386872,10.034486,0.981895,-0.512711,-0.048487,0.005481,-0.078255,-31.360819,-12.061413,3.058257,4636848405379809300.000000,0.473953,0.575060,-0.440632,0.500518,0.341807,0.010060,-9.904498,0.000000,0.003580,0.000000,-27.244776,-7.269730,13.894732,4636847439012167700.000000,0.016870,0.134824,-0.990721,0.003196
1588062524802234,10.022278,-0.422852,-0.438673,-0.084750,0.086292,-0.088884,-35.862532,-9.399700,-3.540147,4636849156999086100.000000,0.581248,0.382279,-0.605475,0.386540,10.013277,1.010008,-0.491503,-0.045790,0.003345,-0.076302,-31.397933,-12.146859,3.045438,4636848405379809300.000000,0.474228,0.575099,-0.440528,0.500303,0.321692,0.012207,-9.890146,-0.000880,0.003204,0.000880,-27.377675,-7.226783,13.682271,4636847439012167700.000000,0.016869,0.134822,-0.990721,0.003196
1588062524810046,10.017078,-0.459474,-0.372438,-0.091495,0.084542,-0.089497,-36.021225,-9.433499,-3.540147,4636849156999086100.000000,0.581775,0.382186,-0.605252,0.386189,9.975053,1.085342,-0.437374,-0.053029,0.000281,-0.076907,-31.478079,-12.232306,3.105982,4636848405379809300.000000,0.474516,0.575132,-0.440443,0.500068,0.337507,0.002150,-9.877940,-0.001068,0.004964,0.000188,-27.264819,-7.427927,13.889250,4636847439012167700.000000,0.016876,0.134822,-0.990721,0.003196
1588062524817858,9.995265,-0.490895,-0.299988,-0.075881,0.080497,-0.089338,-36.130530,-9.594778,-3.537548,4636849179856647200.000000,0.582269,0.382135,-0.605014,0.385869,9.955941,1.152796,-0.408144,-0.068304,-0.004455,-0.077370,-31.487716,-12.317746,3.112888,4636848405379809300.000000,0.474830,0.575146,-0.440395,0.499795,0.361922,0.000000,-9.895903,-0.000188,0.004461,0.000000,-27.174373,-7.611731,14.182228,4636847439012167700.000000,0.016879,0.134823,-0.990721,0.003199
1588062524825670,9.990853,-0.490110,-0.278172,-0.046201,0.077065,-0.091861,-36.054688,-9.729300,-3.527940,4636849264373268500.000000,0.582714,0.382162,-0.604735,0.385607,9.975528,1.127910,-0.441546,-0.082611,-0.009332,-0.078902,-31.409178,-12.329007,3.155279,4636848358771276800.000000,0.475171,0.575145,-0.440382,0.499484,0.346110,-0.010056,-9.910260,0.000880,0.002513,0.000000,-27.292200,-7.501051,14.072938,4636847439012167700.000000,0.016875,0.134825,-0.990721,0.003205
1588062524833482,10.012668,-0.425703,-0.271160,-0.019409,0.072339,-0.091861,-35.987427,-9.711121,-3.548716,4636849264373268500.000000,0.583107,0.382257,-0.604426,0.385402,10.015370,1.038768,-0.486687,-0.092829,-0.016386,-0.081502,-31.429705,-12.317740,3.210547,4636848298005626900.000000,0.475527,0.575144,-0.440395,0.499135,0.331752,-0.032319,-9.912412,-0.001571,0.003016,0.000000,-27.390558,-7.410597,13.877623,4636847439012167700.000000,0.016874,0.134826,-0.990720,0.003202
1588062524841294,10.019681,-0.316616,-0.280770,-0.003364,0.065248,-0.090952,-35.987427,-9.643848,-3.646373,4636849264373268500.000000,0.583458,0.382397,-0.604111,0.385226,10.022278,0.960700,-0.495206,-0.100587,-0.024285,-0.080998,-31.519516,-12.329016,3.210547,4636848298005626900.000000,0.475886,0.575142,-0.440440,0.498755,0.349711,-0.046678,-9.922467,-0.001256,0.003204,0.000880,-27.335232,-7.468076,13.772806,4636847439012167700.000000,0.016874,0.134824,-0.990721,0.003201
1588062524849106,9.999688,-0.255585,-0.285961,0.000000,0.056317,-0.086453,-35.987427,-9.677591,-3.741427,4636849264373268500.000000,0.583776,0.382548,-0.603818,0.385055,10.043464,0.945267,-0.472407,-0.106391,-0.029021,-0.077975,-31.381807,-12.206497,3.162879,4636848298005626900.000000,0.476243,0.575133,-0.440512,0.498361,0.343962,-0.038777,-9.904512,-0.000189,0.003204,0.000189,-27.450858,-7.483138,13.838168,4636847439012167700.000000,0.016873,0.134824,-0.990721,0.003203
1588062524856918,9.956050,-0.194550,-0.310376,-0.001590,0.049682,-0.081793,-35.953688,-9.838878,-3.769781,4636849264373268500.000000,0.584072,0.382695,-0.603550,0.384879,10.086996,0.968066,-0.462266,-0.113726,-0.033898,-0.080292,-31.202124,-12.109744,3.058312,4636848298005626900.000000,0.476612,0.575123,-0.440603,0.497939,0.321702,-0.036622,-9.900204,0.000880,0.003204,0.000880,-27.418550,-7.412771,14.006191,4636847439012167700.000000,0.016872,0.134818,-0.990721,0.003210
1588062524864730,9.929045,-0.125737,-0.337382,-0.009293,0.042659,-0.078749,-35.828728,-9.973449,-3.604847,4636849264373268500.000000,0.584359,0.382827,-0.603314,0.384683,10.097140,0.988800,-0.497268,-0.123197,-0.038170,-0.082852,-31.308021,-12.183873,2.913007,4636848298005626900.000000,0.477000,0.575108,-0.440714,0.497486,0.307341,-0.026571,-9.910255,-0.000691,0.003204,0.000189,-27.204596,-7.457994,14.118924,4636847439012167700.000000,0.016871,0.134819,-0.990721,0.003210
1588062524872542,9.900204,-0.048830,-0.371409,-0.017384,0.036411,-0.072794,-35.810573,-9.991604,-3.566844,4636849264373268500.000000,0.584634,0.382936,-0.603113,0.384471,10.056839,0.988800,-0.530213,-0.135269,-0.042906,-0.082711,-31.478041,-12.391845,2.848447,4636848391155787800.000000,0.477407,0.575079,-0.440857,0.497003,0.285083,-0.024415,-9.902360,-0.000189,0.003204,0.000000,-27.091116,-7.541287,14.216581,4636847439012167700.000000,0.016870,0.134820,-0.990721,0.003212
1588062524880354,9.905389,-0.059199,-0.390637,-0.022431,0.027706,-0.068976,-35.743279,-10.058900,-3.731790,4636849264373268500.000000,0.584890,0.383037,-0.602946,0.384243,10.006395,0.999388,-0.542420,-0.150081,-0.046857,-0.084705,-31.450690,-12.537004,3.007572,4636848512753991700.000000,0.477843,0.575033,-0.441033,0.496481,0.300872,-0.014364,-9.890153,0.000000,0.004084,0.000000,-27.206683,-7.626739,14.233832,4636847439012167700.000000,0.016872,0.134821,-0.990721,0.003216
1588062524888166,9.940171,-0.105436,-0.388045,-0.021297,0.021912,-0.067067,-35.727726,-10.058900,-3.787973,4636849241573605400.000000,0.585127,0.383145,-0.602793,0.384014,9.980360,1.023807,-0.565222,-0.164715,-0.048067,-0.087910,-31.360819,-12.425781,3.119799,4636848512753991700.000000,0.478315,0.574967,-0.441232,0.495925,0.325287,-0.012207,-9.898047,-0.002638,0.005152,0.000000,-27.305074,-7.501121,14.153425,4636847439012167700.000000,0.016880,0.134822,-0.990721,0.003210
1588062524895978,10.010818,-0.144645,-0.378430,-0.016864,0.014889,-0.065545,-35.670033,-10.058900,-3.672187,4636849156999086100.000000,0.585339,0.383269,-0.602652,0.383789,9.962851,1.005836,-0.612450,-0.176608,-0.048530,-0.090188,-31.397911,-12.280647,3.065197,4636848512753991700.000000,0.478817,0.574883,-0.441450,0.495343,0.309503,-0.002159,-9.910253,-0.000567,0.007978,0.000879,-27.189540,-7.259915,14.045737,4636847439012167700.000000,0.016898,0.134820,-0.990721,0.003213
1588062524903790,10.069262,-0.183111,-0.378430,-0.016476,0.009775,-0.063247,-35.685576,-10.074443,-3.527940,4636849156999086100.000000,0.585534,0.383396,-0.602525,0.383562,9.954332,0.959087,-0.668185,-0.183117,-0.048208,-0.090793,-31.440972,-12.391911,2.965933,4636848512753991700.000000,0.479335,0.574787,-0.441678,0.494750,0.345376,-0.010048,-9.912412,-0.001758,0.005028,0.000189,-27.030850,-7.355245,14.197119,4636847439012167700.000000,0.016905,0.134820,-0.990721,0.003211
1588062524911602,10.099962,-0.183111,-0.381019,-0.019744,0.005050,-0.064089,-35.743279,-10.150270,-3.546065,4636849156999086100.000000,0.585725,0.383525,-0.602413,0.383319,9.993025,0.952177,-0.674632,-0.180940,-0.046535,-0.090329,-31.402279,-12.611167,2.965246,4636848512753991700.000000,0.479850,0.574690,-0.441900,0.494165,0.354015,-0.002161,-9.902365,-0.002136,0.004273,0.000879,-27.063056,-7.526131,14.314205,4636847439012167700.000000,0.016909,0.134818,-0.990721,0.003206
1588062524919414,10.060751,-0.177932,-0.390637,-0.029261,-0.002492,-0.065222,-35.743279,-10.235722,-3.634106,4636849156999086100.000000,0.585913,0.383646,-0.602331,0.383039,10.055672,0.994551,-0.636399,-0.174532,-0.045930,-0.087407,-31.360819,-12.596676,3.064513,4636848512753991700.000000,0.480345,0.574599,-0.442116,0.493598,0.333909,0.000000,-9.890151,-0.000377,0.003393,0.002827,-27.146389,-7.415645,14.170649,4636847439012167700.000000,0.016909,0.134808,-0.990722,0.003208
1588062524927226,10.011922,-0.153518,-0.393226,-0.047030,-0.014921,-0.069656,-35.743279,-10.251269,-3.690339,4636849156999086100.000000,0.586106,0.383755,-0.602297,0.382689,10.083315,1.060428,-0.622578,-0.167197,-0.042223,-0.086701,-31.397889,-12.340339,3.155254,4636848512753991700.000000,0.480828,0.574512,-0.442312,0.493053,0.349703,-0.010052,-9.887997,-0.001759,0.003204,0.000566,-27.231832,-7.385479,14.055761,4636847439012167700.000000,0.016908,0.134807,-0.990722,0.003204
1588062524935038,9.970861,-0.139456,-0.397669,-0.067096,-0.030100,-0.072083,-35.743279,-10.022676,-3.634091,4636849156999086100.000000,0.586296,0.383846,-0.602324,0.382263,10.104496,1.047776,-0.617282,-0.156799,-0.035532,-0.089261,-31.409204,-12.232262,3.168186,4636848466178911200.000000,0.481303,0.574436,-0.442469,0.492536,0.364067,-0.032312,-9.887997,-0.000377,0.001445,0.000000,-27.246923,-7.455844,13.877678,4636847439012167700.000000,0.016901,0.134808,-0.990722,0.003205
1588062524942850,9.966414,-0.174215,-0.368083,-0.083605,-0.048158,-0.078654,-35.727759,-9.906102,-3.731743,4636849156999086100.000000,0.586478,0.383942,-0.602407,0.381756,10.137439,0.981449,-0.626253,-0.143055,-0.031723,-0.088193,-31.360819,-12.391827,3.118182,4636848405379809300.000000,0.481752,0.574375,-0.442595,0.492054,0.356171,-0.046673,-9.908099,0.000000,0.003707,0.000000,-27.246923,-7.470931,13.923605,4636847439012167700.000000,0.016902,0.134809,-0.990722,0.003209
1588062524950662,9.977895,-0.247463,-0.314077,-0.088430,-0.075605,-0.081632,-35.670033,-9.991558,-3.788013,4636849156999086100.000000,0.586607,0.384074,-0.602556,0.381190,10.123178,0.966438,-0.646992,-0.131808,-0.028982,-0.089904,-31.323764,-12.611113,3.172737,4636848405379809300.000000,0.482184,0.574333,-0.442691,0.491594,0.343964,-0.028728,-9.912412,0.000000,0.003393,0.000000,-27.307230,-7.330218,14.101670,4636847439012167700.000000,0.016901,0.134811,-0.990722,0.003212
1588062524958474,9.936109,-0.315525,-0.240846,-0.085552,-0.110685,-0.083994,-35.685543,-10.058900,-3.672276,4636849156999086100.000000,0.586652,0.384270,-0.602777,0.380574,10.063766,1.032763,-0.657578,-0.136051,-0.028235,-0.094318,-31.243612,-12.633809,3.277303,4636848405379809300.000000,0.482634,0.574288,-0.442783,0.491121,0.311658,-0.044514,-9.902362,0.000000,0.003204,0.000879,-27.390517,-7.239729,14.126123,4636847439012167700.000000,0.016900,0.134808,-0.990722,0.003215
1588062524966286,9.872484,-0.364357,-0.162427,-0.074581,-0.150045,-0.086972,-35.725180,-10.110610,-3.507255,4636849156999086100.000000,0.586591,0.384556,-0.603067,0.379917,9.990530,1.121874,-0.703155,-0.162078,-0.027451,-0.096133,-31.165084,-12.537004,3.242668,4636848405379809300.000000,0.483148,0.574196,-0.442920,0.490601,0.305185,-0.038780,-9.880106,0.000000,0.004963,0.000189,-27.465917,-7.297128,14.204360,4636847439012167700.000000,0.016906,0.134809,-0.990722,0.003219
1588062524974098,9.804419,-0.408011,-0.072535,-0.057432,-0.193894,-0.089787,-35.657825,-10.336632,-3.448364,4636849156999086100.000000,0.586405,0.384953,-0.603429,0.379228,9.943744,1.189408,-0.765813,-0.200243,-0.022858,-0.097985,-31.116671,-12.653389,2.992839,4636848405379809300.000000,0.483758,0.574024,-0.443117,0.490022,0.305185,-0.016526,-9.885837,0.000000,0.002703,0.000000,-27.418576,-7.382571,14.151288,4636847439012167700.000000,0.016903,0.134810,-0.990722,0.003222
1588062524981910,9.755587,-0.419507,-0.006327,-0.036520,-0.243545,-0.093771,-35.657825,-10.443657,-3.554491,4636849156999086100.000000,0.586076,0.385479,-0.603866,0.378505,9.968569,1.138131,-0.793481,-0.237130,-0.018764,-0.102720,-31.185447,-12.842599,2.825201,4636848405379809300.000000,0.484466,0.573783,-0.443366,0.489380,0.295137,-0.012207,-9.898044,0.000000,0.002136,0.000000,-27.264951,-7.528308,14.055791,4636847439012167700.000000,0.016898,0.134811,-0.990722,0.003224
1588062524989722,9.709349,-0.377729,0.071363,-0.018652,-0.299529,-0.093381,-35.624266,-10.360804,-3.662702,4636849156999086100.000000,0.585586,0.386128,-0.604406,0.377740,10.031229,1.030307,-0.798771,-0.258527,-0.014919,-0.104358,-31.344132,-12.811674,2.959067,4636848405379809300.000000,0.485231,0.573495,-0.443644,0.488706,0.292978,-0.022253,-9.910249,-0.000879,0.003894,0.002637,-27.104129,-7.626699,13.887835,4636847439012167700.000000,0.016900,0.134802,-0.990723,0.003225
1588062524997534,9.677889,-0.316694,0.120191,-0.005609,-0.357659,-0.094839,-35.483643,-10.303048,-3.468573,4636849156999086100.000000,0.584941,0.386895,-0.605055,0.376915,10.053611,0.967644,-0.810977,-0.261839,-0.011144,-0.103468,-31.402330,-12.744929,3.220295,4636848405379809300.000000,0.486008,0.573192,-0.443924,0.488036,0.333162,-0.004323,-9.902365,-0.000189,0.004273,0.003204,-27.206618,-7.501190,14.006093,4636847439012167700.000000,0.016903,0.134791,-0.990725,0.003228
1588062525005346,9.691486,-0.247921,0.156116,0.006244,-0.417923,-0.093997,-35.474909,-10.303048,-3.208465,4636849179694614500.000000,0.584132,0.387776,-0.605825,0.376027,10.030829,0.945258,-0.844336,-0.265718,-0.012675,-0.106529,-31.323803,-12.830375,3.344829,4636848405379809300.000000,0.486795,0.572889,-0.444207,0.487349,0.331762,0.000000,-9.880114,0.000000,0.004273,0.001447,-27.305032,-7.330301,14.269549,4636847439012167700.000000,0.016906,0.134787,-0.990725,0.003231
1588062525013158,9.791032,-0.145099,0.138747,0.008033,-0.481231,-0.095578,-35.709436,-10.303048,-3.082122,4636849264373268500.000000,0.583171,0.388755,-0.606732,0.375043,9.983634,0.983901,-0.889508,-0.279317,-0.015736,-0.111264,-31.275368,-12.841800,3.207358,4636848405379809300.000000,0.487616,0.572572,-0.444511,0.486623,0.319556,0.000000,-9.905920,0.000000,0.003394,0.000189,-27.189604,-7.440635,14.329328,4636847439012167700.000000,0.016905,0.134787,-0.990725,0.003235
1588062525020970,9.846897,-0.046253,0.099559,-0.000344,-0.548896,-0.102601,-35.883936,-10.336547,-3.128896,4636849264373268500.000000,0.582071,0.389830,-0.607792,0.373918,9.922602,1.062427,-0.903348,-0.295338,-0.016771,-0.115217,-31.238362,-12.798645,2.895275,4636848405379809300.000000,0.488477,0.572233,-0.444838,0.485859,0.307349,-0.010043,-9.902368,-0.000879,0.003204,0.000879,-27.030911,-7.541233,14.251146,4636847439012167700.000000,0.016904,0.134785,-0.990725,0.003234
1588062525028782,9.893825,-0.044352,0.048155,-0.013220,-0.614276,-0.110422,-35.764991,-10.513274,-2.992592,4636849264373268500.000000,0.580843,0.390987,-0.609005,0.372644,9.887997,1.095016,-0.887491,-0.308122,-0.016342,-0.115503,-31.152915,-12.879567,2.727537,4636848405379809300.000000,0.489367,0.571868,-0.445187,0.485072,0.305185,-0.042337,-9.900204,-0.000189,0.003204,0.000189,-27.063035,-7.486080,13.992797,4636847439012167700.000000,0.016903,0.134786,-0.990725,0.003237
1588062525036594,9.984418,-0.075820,-0.007726,-0.030309,-0.678918,-0.126384,-35.556921,-10.705893,-2.711850,4636849219070489600.000000,0.579506,0.392234,-0.610361,0.371193,9.898567,1.074252,-0.808592,-0.310655,-0.020008,-0.113367,-31.104464,-13.050458,2.734458,4636848405379809300.000000,0.490252,0.571501,-0.445552,0.484276,0.335307,-0.048830,-9.920285,0.000000,0.004083,0.002636,-27.146305,-7.400647,13.860530,4636847439012167700.000000,0.016906,0.134777,-0.990726,0.003240
1588062525044406,10.089132,-0.080302,-0.054647,-0.049201,-0.736312,-0.138584,-35.514579,-10.672419,-2.433662,4636849049624903700.000000,0.578075,0.393549,-0.611851,0.369577,9.907127,1.116525,-0.600339,-0.298842,-0.022431,-0.114005,-31.178443,-13.110384,2.776732,4636848405379809300.000000,0.491107,0.571160,-0.445897,0.483494,0.331767,-0.038790,-9.894499,-0.000879,0.003394,0.001447,-27.161472,-7.385479,13.923516,4636847439012167700.000000,0.016906,0.134772,-0.990727,0.003240
1588062525052218,10.172004,-0.048167,-0.152962,-0.075285,-0.787522,-0.152469,-35.556929,-10.547196,-2.221747,4636849049624903700.000000,0.576577,0.394907,-0.613467,0.367786,9.937182,1.261716,-0.316324,-0.284558,-0.021507,-0.119201,-31.275368,-12.945703,2.916640,4636848405379809300.000000,0.491940,0.570854,-0.446201,0.482727,0.319561,-0.046661,-9.887997,-0.001068,0.004083,0.000190,-27.091202,-7.455750,14.101474,4636847439012167700.000000,0.016909,0.134773,-0.990727,0.003240
1588062525060030,10.260699,0.010298,-0.294309,-0.105762,-0.831819,-0.165679,-35.481108,-10.580666,-2.201151,4636849049624903700.000000,0.575032,0.396288,-0.615199,0.365820,10.006780,1.405842,-0.213152,-0.283233,-0.022143,-0.126534,-31.238400,-12.719424,2.979906,4636848405379809300.000000,0.492782,0.570563,-0.446487,0.481947,0.327431,-0.038791,-9.908074,-0.001068,0.003394,0.000000,-27.146290,-7.470931,14.055866,4636847439012167700.000000,0.016909,0.134774,-0.990727,0.003239
1588062525067842,10.417447,0.061690,-0.411214,-0.145218,-0.860591,-0.177259,-35.447115,-10.741902,-2.044353,4636849049624903700.000000,0.573488,0.397645,-0.617028,0.363684,10.002804,1.392952,-0.342485,-0.285802,-0.025491,-0.130458,-31.152954,-12.738619,2.790845,4636848405379809300.000000,0.493632,0.570279,-0.446774,0.481147,0.329600,-0.016548,-9.912412,-0.001946,0.004083,0.000000,-27.231732,-7.400671,14.038514,4636847439012167700.000000,0.016912,0.134775,-0.990727,0.003235
1588062525075654,10.612760,0.140728,-0.508870,-0.182266,-0.867336,-0.189962,-35.572372,-10.876797,-1.689079,4636849004382896100.000000,0.571997,0.398955,-0.618897,0.361415,9.950682,1.309489,-0.413069,-0.272261,-0.030399,-0.127860,-31.141420,-12.927975,2.624592,4636848405379809300.000000,0.494436,0.570025,-0.447051,0.480364,0.339637,-0.012207,-9.902374,-0.000380,0.003394,0.000878,-27.246923,-7.315221,14.038514,4636847439012167700.000000,0.016912,0.134773,-0.990727,0.003237
1588062525083466,10.808058,0.300055,-0.580814,-0.229880,-0.863737,-0.195584,-35.538955,-10.858803,-1.477096,4636848834876538900.000000,0.570590,0.400161,-0.620808,0.359020,9.989613,1.350399,-0.315086,-0.247435,-0.037558,-0.124656,-31.226866,-12.976470,2.714328,4636848405379809300.000000,0.495167,0.569826,-0.447301,0.479614,0.341807,-0.012207,-9.900204,0.000000,0.003204,0.000190,-27.106426,-7.300027,14.108763,4636847439012167700.000000,0.016911,0.134773,-0.990727,0.003240
1588062525091278,11.005942,0.479303,-0.543549,-0.290481,-0.836977,-0.205815,-35.364843,-10.773353,-1.459104,4636848834876538900.000000,0.569349,0.401214,-0.622721,0.356492,10.090568,1.472141,-0.253052,-0.238976,-0.047517,-0.124222,-31.307035,-13.013415,2.742392,4636848451803716600.000000,0.495860,0.569661,-0.447555,0.478857,0.321734,-0.022244,-9.880131,-0.000878,0.003204,0.000000,-27.015800,-7.440540,14.053710,4636847439012167700.000000,0.016910,0.134774,-0.990727,0.003239
1588062525099090,11.236576,0.516571,-0.401578,-0.342199,-0.757100,-0.215259,-35.212568,-10.741863,-1.291440,4636848834876538900.000000,0.568390,0.402060,-0.624506,0.353939,10.132145,1.413454,-0.264939,-0.240016,-0.061691,-0.126041,-31.348612,-13.098861,2.540159,4636848512753991700.000000,0.496533,0.569523,-0.447834,0.478062,0.327427,-0.014380,-9.915926,-0.001946,0.003204,0.000000,-27.133222,-7.541171,13.887999,4636847439012167700.000000,0.016910,0.134776,-0.990727,0.003235
1588062525106902,11.546274,0.416337,-0.078386,-0.371715,-0.598670,-0.228078,-35.346214,-10.910205,-0.877007,4636848834876538900.000000,0.567876,0.402648,-0.625954,0.351530,10.105763,1.134039,-0.201937,-0.226193,-0.076672,-0.123271,-31.316954,-13.110438,2.513695,4636848512753991700.000000,0.497143,0.569434,-0.448122,0.477263,0.329600,-0.002174,-9.914585,-0.000380,0.003204,0.000878,-27.221675,-7.486146,13.845369,4636847439012167700.000000,0.016909,0.134773,-0.990727,0.003236
1588062525114714,11.706318,0.278251,0.010996,-0.370143,-0.414624,-0.238422,-35.411110,-11.071437,-0.729877,4636848834876538900.000000,0.567820,0.403009,-0.626970,0.349389,10.108036,0.945246,-0.135938,-0.192884,-0.099128,-0.118248,-31.238439,-13.098850,2.719551,4636848512753991700.000000,0.497631,0.569442,-0.448402,0.476482,0.329600,-0.020065,-9.912412,0.000000,0.003204,0.000190,-27.244749,-7.410736,13.843195,4636847439012167700.000000,0.016908,0.134774,-0.990727,0.003240
1588062525122526,11.436448,0.003294,-0.255726,-0.351433,-0.373280,-0.239040,-35.352689,-11.221801,-0.720237,4636848880041869300.000000,0.567833,0.403355,-0.627865,0.347356,10.182934,1.089323,-0.132624,-0.166143,-0.125830,-0.115505,-31.226839,-13.184297,2.796852,4636848512753991700.000000,0.498006,0.569547,-0.448690,0.475693,0.319569,-0.014384,-9.912412,-0.000878,0.003204,0.000000,-27.236893,-7.457872,13.843195,4636847439012167700.000000,0.016907,0.134775,-0.990727,0.003239
1588062525130338,11.320086,-0.389899,-0.215227,-0.286957,-0.419997,-0.235951,-35.136157,-11.297610,-0.681730,4636849049624903700.000000,0.567623,0.403898,-0.628778,0.345412,10.233419,1.411966,-0.141215,-0.166828,-0.152532,-0.109677,-31.307011,-13.269743,2.739732,4636848512753991700.000000,0.498325,0.569689,-0.449044,0.474854,0.337454,-0.042299,-9.902381,-0.001946,0.005837,0.000878,-27.234716,-7.541145,13.853226,4636847527239878700.000000,0.016917,0.134773,-0.990727,0.003236
1588062525138150,11.482571,-0.697767,-0.133830,-0.199788,-0.451323,-0.224597,-34.974916,-11.398444,-0.498643,4636849049624903700.000000,0.567180,0.404646,-0.629657,0.343657,10.264765,1.736275,-0.055183,-0.182413,-0.176005,-0.095766,-31.348612,-13.355190,2.794125,4636848512753991700.000000,0.498611,0.569819,-0.449503,0.473963,0.331778,-0.028771,-9.900204,-0.001259,0.002021,0.000191,-27.234716,-7.626588,14.015872,4636847546386350100.000000,0.016912,0.134773,-0.990727,0.003234
1588062525145962,11.692128,-0.559192,0.180762,-0.103835,-0.444071,-0.207347,-34.824542,-11.541739,-0.333500,4636849049624903700.000000,0.566578,0.405553,-0.630416,0.342186,10.310268,1.995648,0.112098,-0.210404,-0.189233,-0.081300,-31.280071,-13.403728,2.766902,4636848512753991700.000000,0.498909,0.569893,-0.450071,0.473020,0.329600,-0.034443,-9.890176,0.000687,0.005455,0.000000,-27.234716,-7.571640,14.201138,4636847546386350100.000000,0.016919,0.134775,-0.990727,0.003241
1588062525153774,11.710689,-0.070296,-0.174807,-0.112306,-0.440355,-0.185516,-34.766685,-11.627188,-0.235844,4636849072177193000.000000,0.565967,0.406381,-0.631211,0.340747,10.383508,2.046956,0.147873,-0.245311,-0.197802,-0.070303,-31.121383,-13.366827,2.601561,4636848512753991700.000000,0.499248,0.569895,-0.450744,0.472018,0.329600,-0.036622,-9.898025,-0.001564,0.003776,0.000878,-27.174544,-7.486181,14.153602,4636847546386350100.000000,0.016921,0.134772,-0.990727,0.003238
1588062525161586,11.824455,0.310448,-0.064344,-0.149741,-0.453490,-0.199442,-34.733369,-11.728008,-0.104879,4636849202081947600.000000,0.565400,0.407177,-0.632059,0.339162,10.404039,1.893266,0.006390,-0.256623,-0.206929,-0.052874,-31.031219,-13.281382,2.628744,4636848512753991700.000000,0.499564,0.569860,-0.451493,0.471009,0.329600,-0.016567,-9.910232,-0.001259,0.003204,0.000191,-27.161472,-7.470931,14.055951,4636847634589025300.000000,0.016921,0.134773,-0.990727,0.003236
1588062525169398,11.832889,0.015806,0.127660,-0.196554,-0.496203,-0.216358,-34.590050,-11.889262,0.100222,4636849371747450900.000000,0.564821,0.407966,-0.633034,0.337356,10.349942,1.703229,-0.192522,-0.231962,-0.209818,-0.033527,-30.994328,-13.269716,2.836258,4636848512753991700.000000,0.499783,0.569844,-0.452246,0.470073,0.319574,-0.032260,-9.892359,-0.000191,0.004082,0.000877,-27.231655,-7.400747,13.958304,4636847653760532500.000000,0.016923,0.134771,-0.990727,0.003239
1588062525177210,11.709628,-0.550363,0.401480,-0.259187,-0.562116,-0.163814,-34.522537,-12.024292,0.089377,4636849371747450900.000000,0.564107,0.408571,-0.634317,0.335403,10.288910,1.546477,-0.406970,-0.187080,-0.211808,-0.021025,-30.982652,-13.355162,2.912038,4636848512753991700.000000,0.499875,0.569896,-0.452947,0.469237,0.317392,-0.046648,-9.908049,-0.000877,0.004273,0.001068,-27.246923,-7.385479,14.021063,4636847653760532500.000000,0.016926,0.134768,-0.990727,0.003239
1588062525185022,11.479658,-0.832664,0.554878,-0.289722,-0.650785,-0.101557,-34.504611,-12.039657,0.071107,4636849371747450900.000000,0.563136,0.409067,-0.635931,0.333368,10.238413,1.440216,-0.593410,-0.145785,-0.212247,-0.008961,-31.099710,-13.440609,2.856532,4636848512753991700.000000,0.499851,0.570007,-0.453599,0.468496,0.307367,-0.008726,-9.922437,-0.001945,0.001641,0.000191,-27.176742,-7.455660,14.118722,4636847653760532500.000000,0.016920,0.134768,-0.990727,0.003234
1588062525192834,11.200883,-0.842311,0.859441,-0.243710,-0.716693,-0.071463,-34.385892,-12.133372,0.390243,4636849439289275400.000000,0.561884,0.409673,-0.637672,0.331405,10.207062,1.360038,-0.715221,-0.109280,-0.209964,0.001697,-31.258395,-13.452307,2.940815,4636848512753991700.000000,0.499731,0.570166,-0.454204,0.467844,0.315210,-0.010025,-9.924619,-0.002136,0.002822,0.000000,-27.161472,-7.541103,14.216370,4636847653760532500.000000,0.016919,0.134769,-0.990727,0.003229
1588062525200646,10.903974,-0.798803,1.090196,-0.172094,-0.749443,-0.062573,-34.144309,-12.301711,0.777333,4636849738892118000.000000,0.560419,0.410452,-0.639400,0.329585,10.177381,1.339468,-0.777927,-0.069175,-0.206592,0.008567,-31.280140,-13.440598,3.057118,4636848512753991700.000000,0.499514,0.570385,-0.454744,0.467285,0.327416,-0.002184,-9.904572,-0.001259,0.003204,0.000000,-27.291773,-7.486221,14.153648,4636847653760532500.000000,0.016918,0.134771,-0.990727,0.003227
1588062525208458,10.709841,-0.570825,1.255168,-0.098724,-0.738545,-0.062675,-33.960995,-12.427136,0.872427,4636849908618362900.000000,0.558859,0.411375,-0.641005,0.327963,10.093374,1.377760,-0.821485,-0.038538,-0.200184,0.015121,-31.084606,-13.526039,3.021935,4636848512753991700.000000,0.499228,0.570639,-0.455229,0.466806,0.309557,0.000000,-9.880161,-0.000191,0.003204,0.002631,-27.390320,-7.551103,13.985850,4636847653760532500.000000,0.016917,0.134790,-0.990724,0.003230
1588062525216270,10.573792,-0.304010,1.423358,-0.046723,-0.671990,-0.067638,-33.943083,-12.411783,0.998826,4636849908618362900.000000,0.557384,0.412335,-0.642385,0.326564,9.994277,1.412702,-0.842311,-0.019500,-0.194236,0.019080,-30.977354,-13.574633,2.966399,4636848512753991700.000000,0.498903,0.570913,-0.455677,0.466383,0.325228,0.000000,-9.885811,0.000000,0.002328,0.000574,-27.335472,-7.628717,13.953062,4636847653760532500.000000,0.016912,0.134789,-0.990725,0.003232
1588062525224082,10.313531,-0.049023,1.274427,-0.021525,-0.590350,-0.064911,-33.826972,-12.369231,1.259088,4636849953591266300.000000,0.556067,0.413236,-0.643555,0.325365,9.994504,1.424682,-0.863366,-0.007291,-0.187974,0.021216,-31.092706,-13.537785,2.961135,4636848512753991700.000000,0.498557,0.571195,-0.456095,0.465998,0.319579,-0.020043,-9.898018,0.000000,0.002136,0.000000,-27.250020,-7.571686,13.953062,4636847653760532500.000000,0.016907,0.134791,-0.990725,0.003235
1588062525231894,10.163655,0.697591,1.679033,0.068119,-0.481599,-0.084361,-33.559251,-12.478260,1.403851,4636850168333875200.000000,0.554900,0.414241,-0.644341,0.324522,10.032803,1.424901,-0.927977,0.006907,-0.180959,0.026115,-31.221489,-13.489181,2.954192,4636848512753991700.000000,0.498183,0.571483,-0.456484,0.465664,0.337435,-0.014394,-9.900204,0.000000,0.003013,0.003507,-27.174589,-7.486234,14.023211,4636847653760532500.000000,0.016905,0.134778,-0.990726,0.003238
1588062525239706,10.049820,1.374889,2.594776,0.116056,-0.350304,-0.098841,-33.189662,-12.724938,1.403851,4636850338115092500.000000,0.554004,0.415219,-0.644756,0.323980,10.062475,1.410595,-0.955549,0.022006,-0.172249,0.033278,-31.231595,-13.526006,3.001539,4636848512753991700.000000,0.497778,0.571771,-0.456845,0.465391,0.321767,-0.022227,-9.910224,0.000000,0.003204,0.000766,-27.221592,-7.470931,14.198834,4636847653760532500.000000,0.016904,0.134777,-0.990726,0.003241
1588062525247518,9.577721,1.875104,3.299100,0.083542,-0.204270,-0.086894,-32.963402,-12.942968,1.424288,4636850338115092500.000000,0.553511,0.415911,-0.644914,0.323619,10.093835,1.302423,-0.922503,0.041414,-0.163722,0.037238,-31.153096,-13.574633,3.153476,4636848512753991700.000000,0.497337,0.572074,-0.457162,0.465178,0.337432,-0.044454,-9.892372,0.000000,0.003204,0.000877,-27.304855,-7.611206,14.313990,4636847653760532500.000000,0.016903,0.134775,-0.990727,0.003244
1588062525255330,9.046317,2.105340,3.820602,-0.015061,-0.043470,-0.058057,-32.786846,-13.000884,1.501511,4636850338115092500.000000,0.553548,0.416113,-0.644896,0.323332,10.102471,1.259244,-0.894518,0.069957,-0.156228,0.038914,-31.141278,-13.537818,3.271584,4636848512753991700.000000,0.496842,0.572416,-0.457416,0.465036,0.361842,-0.068864,-9.887997,0.000000,0.003204,0.000192,-27.189946,-7.571715,14.171218,4636847653760532500.000000,0.016901,0.134775,-0.990727,0.003247
1588062525263142,8.641168,2.142281,3.978498,-0.139661,0.135052,-0.033685,-32.545258,-13.036627,1.481086,4636850248290741200.000000,0.554205,0.415759,-0.644689,0.323074,10.048198,1.309760,-0.829917,0.094030,-0.145860,0.039982,-31.226723,-13.452372,3.224259,4636848512753991700.000000,0.496310,0.572783,-0.457609,0.464962,0.346189,-0.053211,-9.898013,-0.001753,0.003204,0.000000,-27.161472,-7.416151,14.056041,4636847653760532500.000000,0.016901,0.134776,-0.990727,0.003244
1588062525270954,8.501457,1.998356,3.825807,-0.239351,0.323333,-0.025985,-32.328650,-13.187101,1.385986,4636849908618362900.000000,0.555488,0.414931,-0.644211,0.322888,9.969881,1.304315,-0.844373,0.104843,-0.134554,0.034608,-31.201751,-13.435279,3.209042,4636848466502823900.000000,0.495783,0.573160,-0.457748,0.464922,0.331792,-0.018784,-9.890189,-0.000384,0.004081,0.000000,-27.291672,-7.395494,14.038514,4636847653760532500.000000,0.016904,0.134778,-0.990726,0.003246
1588062525278766,8.566716,1.858962,3.598075,-0.287254,0.499537,-0.015876,-32.169944,-13.262901,1.280109,4636849908618362900.000000,0.557278,0.413750,-0.643425,0.322887,9.954291,1.185448,-0.990854,0.112483,-0.122361,0.023943,-31.072918,-13.440170,3.360964,4636848405379809300.000000,0.495281,0.573549,-0.457826,0.464903,0.319584,-0.002191,-9.898013,0.000000,0.002520,0.000000,-27.390283,-7.527898,14.118644,4636847653760532500.000000,0.016900,0.134779,-0.990726,0.003248
1588062525286578,8.778754,1.684997,3.527396,-0.296627,0.668127,0.000366,-31.993429,-13.330484,1.094485,4636849908618362900.000000,0.559482,0.412293,-0.642306,0.323168,9.982268,1.068995,-1.058481,0.128224,-0.115196,0.022135,-31.068016,-13.281130,3.605272,4636848405379809300.000000,0.494758,0.573958,-0.457856,0.464924,0.327408,-0.010015,-9.900204,0.000000,0.001260,0.000000,-27.335514,-7.626490,14.146188,4636847653760532500.000000,0.016891,0.134780,-0.990726,0.003250
1588062525294390,8.969510,1.427563,3.448511,-0.275507,0.820280,0.016563,-31.767137,-13.348334,0.863473,4636849908618362900.000000,0.562008,0.410645,-0.640847,0.323779,10.020583,1.172422,-1.011349,0.140996,-0.109856,0.023188,-31.043085,-13.171958,3.772088,4636848405379809300.000000,0.494215,0.574380,-0.457856,0.464981,0.319586,-0.002194,-9.900204,0.000000,0.002821,0.000000,-27.250072,-7.641834,13.988161,4636847653760532500.000000,0.016888,0.134782,-0.990726,0.003253
1588062525302202,9.212159,1.081230,3.299488,-0.208196,0.953597,0.028934,-31.575325,-13.431228,0.515128,4636849863782906900.000000,0.564736,0.408939,-0.639022,0.324796,9.987189,1.402482,-1.008123,0.132259,-0.103596,0.019524,-30.877449,-13.330976,3.735301,4636848405379809300.000000,0.493709,0.574780,-0.457850,0.465030,0.317392,0.000000,-9.890191,0.000000,0.004081,0.000000,-27.244730,-7.441566,13.862941,4636847653760532500.000000,0.016891,0.134783,-0.990726,0.003257
1588062525310014,9.546847,0.799523,3.145893,-0.095187,1.068238,0.038946,-31.257940,-13.507019,0.219075,4636849671455138800.000000,0.567549,0.407306,-0.636806,0.326294,9.924619,1.529482,-1.044582,0.114264,-0.097499,0.019389,-30.855379,-13.476974,3.639345,4636848405379809300.000000,0.493254,0.575134,-0.457865,0.465059,0.287360,-0.010011,-9.898007,-0.000876,0.004273,0.000000,-27.176848,-7.387676,13.923283,4636847653760532500.000000,0.016894,0.134784,-0.990726,0.003257
1588062525317826,9.870261,0.632672,2.988701,0.028335,1.173212,0.049543,-30.940579,-13.556803,-0.119621,4636849586495815700.000000,0.570401,0.405778,-0.634205,0.328284,9.961394,1.529326,-1.048137,0.105287,-0.094146,0.026109,-31.019317,-13.366647,3.618798,4636848405379809300.000000,0.492814,0.575453,-0.457905,0.465093,0.300788,-0.012207,-9.900204,-0.000192,0.003397,0.000876,-27.091410,-7.455542,14.100999,4636847653760532500.000000,0.016894,0.134782,-0.990726,0.003259
1588062525325638,10.070141,0.413999,2.736919,0.112708,1.268321,0.072196,-30.623195,-13.489181,-0.438585,4636849586495815700.000000,0.573313,0.404251,-0.631305,0.330677,10.025830,1.517269,-1.030526,0.107896,-0.094767,0.036492,-31.116671,-13.183847,3.669175,4636848405379809300.000000,0.492347,0.575760,-0.457964,0.465150,0.335215,-0.032227,-9.900204,0.000000,0.004956,0.001068,-27.146091,-7.541001,14.216253,4636847653760532500.000000,0.016899,0.134779,-0.990726,0.003264
1588062525333450,10.235936,0.302119,2.392538,0.177014,1.366312,0.094134,-30.305834,-13.506999,-0.884601,4636849586495815700.000000,0.576322,0.402677,-0.628119,0.333423,10.020433,1.522377,-0.952035,0.116292,-0.100418,0.047011,-31.116671,-13.171930,3.667473,4636848405379809300.000000,0.491832,0.576073,-0.458042,0.465229,0.341807,-0.016607,-9.910212,-0.000876,0.004465,0.000192,-27.221519,-7.486328,14.153770,4636847653760532500.000000,0.016903,0.134780,-0.990726,0.003264
1588062525341262,10.395141,0.259417,1.811704,0.240831,1.453001,0.105924,-30.006274,-13.592447,-1.260465,4636849541726799900.000000,0.579409,0.401091,-0.624654,0.336479,9.959399,1.480505,-0.845583,0.126823,-0.107895,0.054947,-31.116671,-13.220617,3.674428,4636848405379809300.000000,0.491266,0.576407,-0.458133,0.465325,0.321790,-0.022216,-9.902403,-0.000192,0.004273,0.000000,-27.174666,-7.400871,14.056106,4636847653760532500.000000,0.016906,0.134781,-0.990726,0.003267
1588062525349074,10.592417,0.332630,1.283426,0.298220,1.512217,0.102320,-29.756660,-13.660085,-1.629065,4636849349410436100.000000,0.582536,0.399552,-0.620953,0.339747,9.929869,1.478933,-0.732313,0.140410,-0.116290,0.063951,-31.111420,-13.257371,3.632424,4636848405379809300.000000,0.490637,0.576765,-0.458236,0.465443,0.327400,-0.044430,-9.900204,-0.000876,0.004273,0.000000,-27.031374,-7.455531,13.878394,4636847653760532500.000000,0.016910,0.134782,-0.990726,0.003267
1588062525356886,10.733267,0.431080,0.911303,0.344316,1.554160,0.099262,-29.439572,-13.642391,-1.966685,4636849264373268500.000000,0.585674,0.398055,-0.617066,0.343173,9.968326,1.550467,-0.667865,0.149541,-0.124984,0.072645,-31.104464,-13.306069,3.529521,4636848451556342800.000000,0.489956,0.577140,-0.458358,0.465575,0.339606,-0.038824,-9.910210,-0.001944,0.003397,0.000876,-27.062812,-7.470931,13.923243,4636847653760532500.000000,0.016910,0.134780,-0.990726,0.003263
1588062525364698,10.809021,0.588481,0.702979,0.357683,1.585130,0.092118,-29.089416,-13.592309,-2.190163,4636849264373268500.000000,0.588853,0.396548,-0.613055,0.346649,10.020567,1.599170,-0.631248,0.144489,-0.137512,0.079203,-31.072974,-13.269331,3.556123,4636848512753991700.000000,0.489252,0.577517,-0.458527,0.465682,0.311794,-0.036622,-9.902407,-0.000386,0.003204,0.000193,-27.216081,-7.330870,14.090920,4636847653760532500.000000,0.016909,0.134781,-0.990726,0.003264
1588062525372510,10.874271,0.595638,0.693716,0.332343,1.619200,0.099853,-28.595652,-13.728266,-2.566067,4636849219950155800.000000,0.592117,0.394902,-0.608987,0.350120,10.023991,1.557191,-0.605123,0.130904,-0.155819,0.084543,-31.067951,-13.183886,3.716407,4636848512753991700.000000,0.488535,0.577891,-0.458768,0.465733,0.335201,-0.036622,-9.910210,0.000875,0.003204,0.000000,-27.376994,-7.310032,14.133971,4636847653760532500.000000,0.016908,0.134782,-0.990726,0.003271
1588062525380322,10.844389,0.626354,0.717295,0.296394,1.662036,0.110903,-28.084625,-14.004834,-2.914605,4636849005207476200.000000,0.595499,0.393071,-0.604860,0.353583,10.010071,1.470026,-0.624400,0.117637,-0.172450,0.088966,-31.148155,-13.135166,3.682882,4636848512753991700.000000,0.487810,0.578262,-0.459075,0.465731,0.321799,-0.006609,-9.902407,0.000193,0.003204,0.000000,-27.335591,-7.452295,13.906073,4636847653760532500.000000,0.016907,0.134783,-0.990725,0.003274
1588062525388134,10.731603,0.748470,0.598639,0.283316,1.689034,0.113188,-27.719329,-14.062928,-3.195340,4636848834876538900.000000,0.598935,0.391149,-0.600664,0.357046,10.031055,1.402036,-0.695922,0.104352,-0.188930,0.091711,-31.158439,-13.171888,3.611776,4636848512753991700.000000,0.487081,0.578631,-0.459443,0.465672,0.347401,-0.030008,-9.900204,-0.000875,0.003204,0.000875,-27.250149,-7.543155,13.855403,4636847653760532500.000000,0.016906,0.134781,-0.990726,0.003274
1588062525395946,10.555672,0.557003,0.323346,0.288841,1.699017,0.109613,-27.185184,-14.012486,-3.438250,4636848834876538900.000000,0.602364,0.389217,-0.596405,0.360513,10.048412,1.299054,-0.797094,0.094915,-0.205559,0.095682,-31.043251,-13.252083,3.852733,4636848512753991700.000000,0.486335,0.579006,-0.459868,0.465566,0.334012,-0.006619,-9.920206,-0.002818,0.002329,0.000193,-27.304726,-7.556383,14.085431,4636847653760532500.000000,0.016903,0.134781,-0.990726,0.003266
1588062525403758,10.362876,0.272398,0.088077,0.302895,1.699794,0.111935,-26.709095,-13.818781,-3.573741,4636848834876538900.000000,0.605742,0.387293,-0.592101,0.364002,10.029242,1.161341,-0.898187,0.104851,-0.220662,0.103926,-30.982472,-13.293862,4.225813,4636848512753991700.000000,0.485524,0.579411,-0.460322,0.465460,0.319598,0.000000,-9.924619,0.000296,0.003011,0.000000,-27.250153,-7.556383,14.056156,4636847653760532500.000000,0.016901,0.134783,-0.990726,0.003270
1588062525411570,10.189857,0.053183,-0.283983,0.360061,1.689042,0.112632,-26.280934,-13.851564,-3.854504,4636848834876538900.000000,0.608980,0.385501,-0.587714,0.367593,10.017035,1.140608,-0.955698,0.126520,-0.231795,0.110478,-31.099374,-13.293862,4.359689,4636848512753991700.000000,0.484631,0.579866,-0.460772,0.465378,0.327394,-0.010001,-9.894615,0.000193,0.003204,0.002625,-27.104701,-7.486374,13.958504,4636847653760532500.000000,0.016899,0.134774,-0.990727,0.003274
1588062525419382,10.080794,-0.345514,-0.714257,0.401762,1.673788,0.123858,-26.006564,-13.995121,-4.115081,4636848834876538900.000000,0.612077,0.383786,-0.583294,0.371266,9.994345,1.238262,-1.002802,0.147725,-0.239271,0.109711,-31.189915,-13.262410,4.160714,4636848512753991700.000000,0.483678,0.580374,-0.461196,0.465316,0.309601,-0.032207,-9.917996,0.000000,0.003204,0.000580,-27.076021,-7.470931,14.020852,4636847653760532500.000000,0.016898,0.134773,-0.990727,0.003277
1588062525427194,10.071108,-0.500504,-0.924303,0.424669,1.675111,0.147508,-25.580639,-14.062928,-4.300712,4636848834876538900.000000,0.615080,0.382052,-0.578847,0.375032,10.004895,1.309708,-1.074317,0.156251,-0.246289,0.109717,-31.121781,-13.178688,4.021543,4636848512753991700.000000,0.482693,0.580911,-0.461616,0.465253,0.295187,-0.016626,-9.924619,-0.001750,0.004079,0.000000,-27.146007,-7.540918,14.118499,4636847653760532500.000000,0.016901,0.134774,-0.990727,0.003273
1588062525435006,10.063548,-0.500504,-1.091107,0.448656,1.681960,0.164191,-25.069527,-14.045289,-4.455702,4636848834876538900.000000,0.618009,0.380311,-0.574346,0.378886,10.036212,1.309645,-1.123081,0.155647,-0.251781,0.116741,-31.031219,-13.122958,4.213525,4636848512753991700.000000,0.481685,0.581443,-0.462063,0.465189,0.312973,-0.032203,-9.924619,-0.001261,0.003398,0.000000,-27.221459,-7.626367,14.146171,4636847653760532500.000000,0.016901,0.134775,-0.990727,0.003272
1588062525442818,10.011826,-0.500504,-1.112399,0.451793,1.690945,0.187820,-24.737084,-13.995101,-4.475844,4636848834876538900.000000,0.620891,0.378493,-0.569826,0.382800,10.006561,1.297494,-1.091648,0.157627,-0.255136,0.123295,-31.067891,-13.159631,4.483726,4636848512753991700.000000,0.480654,0.581973,-0.462528,0.465132,0.297397,-0.036622,-9.894625,-0.001943,0.003204,0.000000,-27.304702,-7.501865,14.138383,4636847653760532500.000000,0.016901,0.134777,-0.990726,0.003267
1588062525450630,9.884320,-0.500504,-1.346491,0.448876,1.696779,0.225107,-24.343898,-14.062928,-4.591141,4636848834876538900.000000,0.623704,0.376558,-0.565325,0.386788,10.011846,1.307924,-1.034123,0.156559,-0.257730,0.124363,-31.116671,-13.208410,4.471241,4636848512753991700.000000,0.479618,0.582502,-0.463000,0.465069,0.322967,-0.036622,-9.887997,-0.003011,0.003204,0.000000,-27.260189,-7.330979,14.056201,4636847653760532500.000000,0.016902,0.134778,-0.990726,0.003258
1588062525458442,9.714196,-0.490434,-1.509063,0.458589,1.682641,0.248130,-23.976339,-14.045306,-4.776751,4636848834876538900.000000,0.626407,0.374600,-0.560851,0.390814,10.072879,1.215425,-1.023689,0.157324,-0.259102,0.124973,-31.080010,-13.135088,4.249870,4636848512753991700.000000,0.478576,0.583033,-0.463475,0.465005,0.339596,-0.036622,-9.907989,-0.001455,0.004954,0.000000,-27.106977,-7.439975,13.958544,4636847653760532500.000000,0.016908,0.134779,-0.990726,0.003257
1588062525466254,9.658573,-0.441607,-1.560784,0.483221,1.663195,0.262357,-23.726792,-13.959860,-4.969543,4636848834876538900.000000,0.628980,0.372682,-0.556381,0.394882,10.107730,1.027091,-1.079521,0.165569,-0.262157,0.126348,-31.031219,-12.927542,4.312814,4636848512753991700.000000,0.477506,0.583581,-0.463942,0.464950,0.321815,-0.036622,-9.892419,-0.000193,0.005341,0.000000,-27.076021,-7.540905,14.020825,4636847653760532500.000000,0.016915,0.134780,-0.990726,0.003260
1588062525474066,9.675807,-0.407874,-1.647999,0.516767,1.643783,0.266661,-23.376766,-13.892025,-5.135019,4636848834876538900.000000,0.631427,0.370850,-0.551887,0.398987,10.081548,0.894610,-1.140525,0.180981,-0.271161,0.128636,-31.067874,-12.739259,4.611028,4636848512753991700.000000,0.476380,0.584170,-0.464403,0.464907,0.327387,-0.036622,-9.887997,-0.001749,0.003592,0.000000,-27.275921,-7.416453,14.198434,4636847653760532500.000000,0.016916,0.134781,-0.990726,0.003257
1588062525481878,9.707401,-0.429775,-1.640453,0.547397,1.628640,0.275427,-22.900641,-13.892025,-5.232685,4636848834876538900.000000,0.633753,0.369081,-0.547371,0.403140,10.015278,0.898140,-1.152732,0.191505,-0.278483,0.127413,-31.153321,-12.720142,4.832424,4636848512753991700.000000,0.475218,0.584792,-0.464855,0.464862,0.349587,-0.036622,-9.907984,-0.000387,0.004953,0.000000,-27.390123,-7.325518,14.153885,4636847653760532500.000000,0.016922,0.134783,-0.990725,0.003259
1588062525489690,9.732177,-0.429411,-1.598807,0.555813,1.618652,0.284379,-22.457296,-13.909623,-5.310220,4636848834876538900.000000,0.636003,0.367312,-0.542853,0.407299,9.978683,1.002780,-1.170172,0.196541,-0.284129,0.124973,-31.165484,-12.768944,4.848061,4636848512753991700.000000,0.474037,0.585437,-0.465301,0.464808,0.354015,-0.026630,-9.902419,0.000000,0.003592,0.000000,-27.335678,-7.382178,13.976304,4636847653760532500.000000,0.016922,0.134784,-0.990725,0.003262
1588062525497502,9.792850,-0.368022,-1.565417,0.547929,1.614569,0.290567,-22.155012,-13.995066,-5.310220,4636848879079735300.000000,0.638217,0.365500,-0.538342,0.411433,10.022284,1.081226,-1.205049,0.206764,-0.292063,0.130925,-31.153300,-12.737548,4.696347,4636848512753991700.000000,0.472807,0.586104,-0.465756,0.464765,0.354015,-0.014422,-9.920190,-0.001749,0.004079,0.000000,-27.250219,-7.457643,14.100740,4636847565865189400.000000,0.016925,0.134785,-0.990725,0.003259
1588062525505314,9.797519,-0.263181,-1.653737,0.544347,1.603574,0.292830,-21.880711,-14.045339,-5.330322,4636849049624903700.000000,0.640380,0.363676,-0.533843,0.415530,10.081573,1.089949,-1.238180,0.220650,-0.303355,0.142064,-31.233518,-12.732326,4.624868,4636848466730593300.000000,0.471504,0.586795,-0.466231,0.464741,0.334031,-0.002216,-9.904635,-0.000388,0.003398,0.000000,-27.304660,-7.540874,14.136173,4636847546386350100.000000,0.016925,0.134786,-0.990725,0.003261
1588062525513126,9.750497,-0.220439,-1.800219,0.547551,1.574831,0.284756,-21.520240,-13.977477,-5.410392,4636849049624903700.000000,0.642463,0.361907,-0.529376,0.419555,10.074592,1.084710,-1.208527,0.237741,-0.317393,0.152288,-31.275368,-12.739290,4.776598,4636848497430529000.000000,0.470116,0.587523,-0.466724,0.464733,0.349580,-0.019981,-9.910194,-0.001748,0.004953,0.000000,-27.320169,-7.566373,13.826474,4636847546386350100.000000,0.016932,0.134788,-0.990724,0.003258
1588062525520938,9.626279,-0.347512,-1.949191,0.552292,1.526024,0.282620,-21.293705,-13.995046,-5.420087,4636849049624903700.000000,0.644415,0.360219,-0.524998,0.423497,10.046693,0.960897,-1.133545,0.269631,-0.332499,0.165716,-31.207355,-12.646870,4.937023,4636848620128174100.000000,0.468601,0.588311,-0.467215,0.464772,0.334037,-0.014426,-9.892434,-0.001262,0.003593,0.000000,-27.260236,-7.498669,13.677834,4636847546386350100.000000,0.016933,0.134789,-0.990724,0.003256
1588062525528750,9.548353,-0.471414,-2.115432,0.567808,1.457976,0.278286,-21.119931,-14.077993,-5.400000,4636849049624903700.000000,0.646187,0.358676,-0.520738,0.427347,10.046693,0.837080,-1.072514,0.318760,-0.352944,0.176701,-31.085288,-12.524815,5.034671,4636848620128174100.000000,0.466914,0.589203,-0.467679,0.464873,0.319611,-0.042173,-9.907974,0.000680,0.003204,-0.000874,-27.177005,-7.473150,14.049634,4636847546386350100.000000,0.016931,0.134794,-0.990724,0.003262
1588062525536562,9.502038,-0.505523,-2.295673,0.604620,1.371814,0.266348,-20.870447,-14.103548,-5.362582,4636849071699012600.000000,0.647728,0.357382,-0.516599,0.431106,10.036236,0.950362,-1.069001,0.359807,-0.377355,0.185245,-31.080027,-12.427136,5.179374,4636848528148140000.000000,0.465071,0.590197,-0.468130,0.465005,0.327378,-0.028858,-9.922397,-0.000679,0.003204,0.000679,-27.161472,-7.610733,14.146159,4636847634220465200.000000,0.016930,0.134792,-0.990724,0.003262
1588062525544374,9.467927,-0.537465,-2.450365,0.645470,1.275713,0.260438,-20.553062,-13.942347,-5.537821,4636849156999086100.000000,0.649006,0.356353,-0.512608,0.434783,9.985678,1.168388,-1.137017,0.372479,-0.400245,0.194248,-31.128878,-12.463737,5.339842,4636848451369826300.000000,0.463139,0.591236,-0.468618,0.465123,0.329600,-0.034400,-9.904648,-0.001068,0.004078,0.000194,-27.161472,-7.711732,13.988615,4636847653760532500.000000,0.016933,0.134793,-0.990724,0.003262
1588062525552186,9.446022,-0.580939,-2.761203,0.655536,1.179692,0.264930,-20.268307,-13.841686,-5.577785,4636849156999086100.000000,0.650051,0.355492,-0.508835,0.438346,9.942054,1.250383,-1.182367,0.363328,-0.418556,0.206148,-31.092282,-12.543956,5.489775,4636848512753991700.000000,0.461170,0.592267,-0.469181,0.465200,0.299648,-0.036622,-9.920172,-0.001068,0.003399,0.000000,-27.221376,-7.587510,13.873190,4636847653760532500.000000,0.016933,0.134794,-0.990724,0.003261
1588062525559998,9.421279,-0.554018,-3.160858,0.634497,1.064690,0.267199,-20.092068,-14.027625,-5.372117,4636849156999086100.000000,0.650875,0.354761,-0.505379,0.441700,9.959485,1.205105,-1.180648,0.343497,-0.438844,0.218813,-31.006847,-12.549252,5.610180,4636848512753991700.000000,0.459184,0.593273,-0.469844,0.465214,0.302963,-0.046607,-9.914634,-0.001068,0.004078,0.000000,-27.234716,-7.556383,14.005179,4636847653760532500.000000,0.016936,0.134795,-0.990723,0.003260
1588062525567810,9.350553,-0.524918,-3.433737,0.596873,0.937578,0.255395,-19.832939,-14.221624,-5.141822,4636849156999086100.000000,0.651506,0.354168,-0.502283,0.444765,9.999572,1.067369,-1.185826,0.328686,-0.460209,0.228425,-30.926627,-12.427236,5.644995,4636848512753991700.000000,0.457173,0.594270,-0.470591,0.465167,0.335137,-0.038846,-9.902427,-0.001942,0.003399,0.000000,-27.234716,-7.626271,14.048498,4636847653760532500.000000,0.016936,0.134796,-0.990723,0.003255
1588062525575622,9.294527,-0.522414,-3.634059,0.554148,0.804885,0.235759,-19.563143,-14.186560,-5.189093,4636849223089249300.000000,0.651959,0.353730,-0.499564,0.447504,10.102409,0.919119,-1.246864,0.337368,-0.477757,0.240325,-30.921304,-12.219756,5.695632,4636848512753991700.000000,0.455086,0.595289,-0.471378,0.465113,0.331824,-0.036622,-9.900204,-0.000389,0.004078,0.000000,-27.234716,-7.641834,13.970851,4636847653760532500.000000,0.016938,0.134798,-0.990723,0.003257
1588062525583434,9.252902,-0.510208,-3.858777,0.508360,0.667546,0.219765,-19.497727,-14.018177,-5.354662,4636849479121633300.000000,0.652227,0.353442,-0.497246,0.449918,10.240191,0.837088,-1.297447,0.366046,-0.496827,0.255734,-30.933619,-12.073122,5.777446,4636848558696893400.000000,0.452865,0.596362,-0.472181,0.465092,0.349565,-0.016657,-9.900204,0.000873,0.003399,0.000000,-27.234716,-7.502080,14.022940,4636847653760532500.000000,0.016937,0.134799,-0.990723,0.003264
1588062525591246,9.166836,-0.498000,-4.152979,0.443454,0.526419,0.208673,-19.474891,-13.874504,-5.414773,4636849479121633300.000000,0.652323,0.353255,-0.495381,0.451978,10.313493,0.798769,-1.375846,0.403880,-0.519862,0.274040,-30.921286,-12.104456,6.031957,4636848620128174100.000000,0.450478,0.597505,-0.472994,0.465117,0.334050,0.007757,-9.900204,0.000195,0.003204,0.000873,-27.174824,-7.470931,13.958657,4636847653760532500.000000,0.016936,0.134797,-0.990723,0.003268
1588062525599058,9.003761,-0.493299,-4.658723,0.337842,0.366489,0.204069,-19.316215,-13.806573,-5.309321,4636849479121633300.000000,0.652259,0.353087,-0.494101,0.453599,10.311796,0.725525,-1.473570,0.447976,-0.547937,0.296317,-30.970182,-12.146366,6.302348,4636848620128174100.000000,0.447892,0.598731,-0.473825,0.465192,0.309641,0.002228,-9.890224,0.000000,0.002331,0.000195,-27.161472,-7.680503,14.030671,4636847653760532500.000000,0.016931,0.134797,-0.990723,0.003270
1588062525606870,8.870813,-0.520212,-5.254915,0.180351,0.202332,0.214312,-19.172537,-13.824075,-5.143730,4636849457129993200.000000,0.652076,0.352789,-0.493530,0.454714,10.249068,0.626176,-1.511954,0.495732,-0.578300,0.321642,-30.933630,-12.073263,6.504641,4636848620128174100.000000,0.445087,0.600043,-0.474677,0.465325,0.335122,0.009979,-9.887997,0.000000,0.002136,0.000000,-27.221346,-7.587579,14.040742,4636847478212266000.000000,0.016926,0.134799,-0.990723,0.003273
1588062525614682,8.775941,-0.901866,-5.538492,-0.014914,0.022032,0.241452,-19.087084,-13.892025,-5.086074,4636849371747450900.000000,0.651766,0.352260,-0.493803,0.455272,10.182742,0.533673,-1.531146,0.548669,-0.610186,0.350324,-30.749006,-11.860620,6.658174,4636848574212758500.000000,0.442042,0.601445,-0.475550,0.465526,0.321849,0.002228,-9.917934,0.000000,0.003883,0.000000,-27.244695,-7.416676,14.118347,4636847439012167700.000000,0.016927,0.134800,-0.990723,0.003276
1588062525622494,9.407490,-2.430551,-5.231333,-0.261411,-0.033916,0.357626,-18.989139,-13.842033,-5.183728,4636849371747450900.000000,0.651479,0.350979,-0.494816,0.455573,10.205302,0.523149,-1.522475,0.601623,-0.644666,0.376120,-30.635188,-11.670365,6.755826,4636848512753991700.000000,0.438757,0.602945,-0.476441,0.465783,0.317392,-0.029937,-9.894682,-0.001746,0.003399,0.000000,-27.177071,-7.315626,14.056341,4636847439012167700.000000,0.016928,0.134801,-0.990723,0.003273
1588062525630306,9.532597,-2.485007,-6.897955,-0.293717,-0.200621,0.456582,-18.840184,-13.630397,-5.261391,4636849371747450900.000000,0.650735,0.349719,-0.496444,0.455833,10.280315,0.547564,-1.496291,0.638729,-0.685550,0.397785,-30.830419,-11.584913,6.853485,4636848512753991700.000000,0.435261,0.604534,-0.477378,0.466043,0.337348,-0.026644,-9.878019,-0.001263,0.003204,0.000873,-27.231316,-7.379850,13.878869,4636847439012167700.000000,0.016927,0.134799,-0.990723,0.003271
1588062525638118,10.226504,0.428409,-0.768398,-0.426925,-0.456973,0.238559,-18.681487,-13.544945,-5.243911,4636849371747450900.000000,0.650061,0.348998,-0.498660,0.454928,10.351786,0.608508,-1.478866,0.662073,-0.734829,0.424022,-30.975401,-11.499466,7.039855,4636848512753991700.000000,0.431564,0.606194,-0.478410,0.466267,0.361762,-0.024415,-9.895744,-0.000195,0.004077,0.000195,-27.376632,-7.467529,13.693533,4636847439012167700.000000,0.016929,0.134799,-0.990723,0.003273
1588062525645930,12.174941,2.739149,8.005616,-0.835511,-0.370110,0.099169,-18.522790,-13.476974,-5.175939,4636849415675751400.000000,0.650354,0.347354,-0.501187,0.452987,10.452877,0.848786,-1.339680,0.690289,-0.788531,0.456209,-30.841530,-11.408808,7.350218,4636848512753991700.000000,0.427633,0.607928,-0.479549,0.466462,0.326317,-0.014439,-9.920156,-0.000873,0.002527,0.000000,-27.265953,-7.612829,13.899514,4636847439012167700.000000,0.016926,0.134801,-0.990723,0.003273
1588062525653742,11.626749,0.164582,11.574024,-0.796434,-0.116432,0.218506,-18.379079,-13.476974,-5.195913,4636849586495815700.000000,0.650872,0.345122,-0.503156,0.451765,10.616671,1.404642,-1.046724,0.715183,-0.836768,0.482327,-30.621494,-11.316372,7.615426,4636848512753991700.000000,0.423495,0.609729,-0.480775,0.466623,0.307418,-0.012207,-9.924619,-0.000195,0.003882,0.000000,-27.174869,-7.641834,14.112657,4636847439012167700.000000,0.016927,0.134802,-0.990723,0.003275
1588062525661554,9.796018,-3.051045,9.729030,-0.221755,0.092113,0.387647,-18.328572,-13.476974,-5.273598,4636849586495815700.000000,0.650722,0.343648,-0.503805,0.452380,10.841621,1.966730,-0.936310,0.710357,-0.874765,0.496213,-30.610843,-11.230920,7.769015,4636848512753991700.000000,0.419263,0.611552,-0.482095,0.466698,0.315159,-0.042131,-9.894696,0.000000,0.003400,0.000000,-27.360960,-7.372526,13.978816,4636847439012167700.000000,0.016927,0.134803,-0.990722,0.003278
1588062525669366,9.247436,-2.084841,5.966007,0.333343,0.169479,0.488385,-18.379099,-13.459516,-5.273598,4636849586495815700.000000,0.649799,0.343249,-0.503410,0.454445,11.057903,2.106779,-1.060154,0.677712,-0.918081,0.511011,-30.725807,-11.181981,7.871884,4636848512753991700.000000,0.414991,0.613358,-0.483570,0.466620,0.307418,-0.038855,-9.897971,0.000000,0.004950,0.000873,-27.405621,-7.172593,13.781264,4636847439012167700.000000,0.016932,0.134801,-0.990723,0.003282
1588062525677178,10.097885,1.487466,3.096480,0.540804,0.089885,0.471225,-18.360985,-13.274304,-5.256140,4636849586495815700.000000,0.648467,0.343549,-0.502822,0.456766,11.221913,1.732797,-1.216931,0.655998,-0.961134,0.525206,-30.823694,-11.103773,8.106870,4636848512753991700.000000,0.410654,0.615166,-0.485176,0.466410,0.335104,-0.006703,-9.910177,-0.000873,0.005341,0.000196,-27.275970,-7.211143,13.895133,4636847439012167700.000000,0.016940,0.134802,-0.990722,0.003283
1588062525684990,10.405319,2.684876,1.049490,0.527147,-0.196047,0.398061,-18.654999,-12.650698,-5.153235,4636849608429669400.000000,0.646718,0.344466,-0.502881,0.458487,11.260570,0.967348,-1.384518,0.690353,-0.995456,0.532394,-30.755925,-10.889397,8.509685,4636848466901422100.000000,0.406145,0.617062,-0.486779,0.466183,0.321862,-0.029918,-9.892466,-0.000196,0.003595,0.002618,-27.177114,-7.216810,14.008429,4636847439012167700.000000,0.016940,0.134793,-0.990724,0.003286
1588062525692802,9.955037,1.306792,-0.535452,0.607671,-0.559604,0.472785,-19.125799,-11.950029,-4.979857,4636849693869998100.000000,0.644006,0.346087,-0.503810,0.460061,11.333290,0.351108,-1.268445,0.777318,-1.000000,0.533462,-30.597228,-10.627829,8.870825,4636848405379809300.000000,0.401405,0.619086,-0.488220,0.466098,0.337336,-0.036622,-9.917911,0.000000,0.002332,0.003204,-27.161472,-7.214575,14.026306,4636847439012167700.000000,0.016935,0.134782,-0.990725,0.003289
1588062525700614,10.378077,0.091693,-1.149988,0.896624,-0.820868,0.561040,-19.478787,-11.788123,-4.759378,4636849693869998100.000000,0.640218,0.348723,-0.504985,0.462064,11.711296,0.160343,-0.568520,0.858228,-0.913504,0.516287,-30.438540,-10.364494,9.129083,4636848405379809300.000000,0.396654,0.621094,-0.489323,0.466338,0.341807,-0.006708,-9.914648,-0.000872,0.003009,0.001459,-27.231271,-7.423971,13.956508,4636847439012167700.000000,0.016934,0.134777,-0.990726,0.003288
1588062525708426,11.238996,0.851874,-1.311550,1.178099,-0.989150,0.565381,-19.652386,-11.914426,-4.390742,4636849693869998100.000000,0.635685,0.352348,-0.506063,0.464388,11.892222,0.096301,0.014134,0.924448,-0.856999,0.471896,-30.347605,-10.139425,9.324387,4636848405379809300.000000,0.391921,0.623169,-0.490097,0.466759,0.341807,0.000000,-9.922379,-0.001940,0.001460,0.000196,-27.177152,-7.470931,14.020594,4636847439012167700.000000,0.016927,0.134778,-0.990726,0.003283
1588062525716238,11.346720,3.059327,-1.725148,1.243415,-1.098088,0.536241,-19.869387,-11.882069,-4.014811,4636849693869998100.000000,0.630873,0.356374,-0.507231,0.466599,11.887638,0.083225,0.034543,1.038088,-0.953169,0.453012,-30.316340,-10.034486,9.566592,4636848405379809300.000000,0.386749,0.625611,-0.490750,0.467120,0.331841,-0.019933,-9.904685,-0.001264,0.003684,0.000000,-27.161472,-7.261633,14.028547,4636847439012167700.000000,0.016928,0.134779,-0.990726,0.003281
1588062525724050,11.084322,3.892924,-0.766664,0.964118,-1.152178,0.492512,-19.963383,-11.755730,-3.685937,4636849715754481700.000000,0.626395,0.359883,-0.508959,0.468054,12.472599,0.358750,0.474668,1.199880,-1.042913,0.483788,-30.274361,-10.070950,9.835273,4636848405379809300.000000,0.380939,0.628378,-0.491299,0.467602,0.329600,-0.004484,-9.900204,-0.001068,0.003401,0.000872,-27.231229,-7.144818,14.106028,4636847439012167700.000000,0.016928,0.134777,-0.990726,0.003280
1588062525731862,11.081833,2.614854,0.361130,0.596211,-1.169228,0.470898,-19.642890,-11.837866,-3.520235,4636849801244180500.000000,0.622420,0.362553,-0.511354,0.468685,12.997300,0.398143,0.285431,1.296202,-1.094390,0.533657,-30.201454,-10.078276,10.091432,4636848771823582200.000000,0.374685,0.631259,-0.491850,0.468195,0.299701,-0.029899,-9.890238,-0.001068,0.005821,0.000196,-27.376486,-7.348382,14.133932,4636847439012167700.000000,0.016937,0.134777,-0.990726,0.003280
1588062525739674,11.004955,0.348962,0.870132,0.331450,-1.176031,0.481062,-18.670935,-12.275483,-3.442488,4636849801244180500.000000,0.618770,0.364562,-0.514251,0.468790,12.988852,0.077532,-0.743777,1.278301,-1.207141,0.593909,-30.004528,-9.834835,10.391388,4636849264373268500.000000,0.368131,0.634172,-0.492722,0.468540,0.312908,-0.016692,-9.897962,-0.000196,0.004665,0.000000,-27.335864,-7.527235,14.295618,4636847439012167700.000000,0.016942,0.134778,-0.990725,0.003283
1588062525747486,10.662957,-0.909186,1.044417,0.132993,-1.172333,0.461205,-17.820099,-12.749725,-3.422598,4636849757508305900.000000,0.615432,0.366115,-0.517461,0.468442,13.231388,0.098197,-0.827411,1.263132,-1.403483,0.623987,-29.736157,-9.364156,10.725998,4636849264373268500.000000,0.361160,0.637330,-0.493951,0.468387,0.327357,-0.022172,-9.900204,-0.001744,0.003401,0.000000,-27.120869,-7.486627,14.411211,4636847439012167700.000000,0.016942,0.134780,-0.990725,0.003280
1588062525755298,10.307127,-1.789711,0.870581,-0.048003,-1.151564,0.396899,-17.794092,-12.800371,-3.327425,4636849586495815700.000000,0.612497,0.367317,-0.520848,0.467592,13.992982,0.349191,-0.167987,1.344176,-1.632135,0.606443,-29.450033,-8.955601,11.210266,4636849264373268500.000000,0.353554,0.641011,-0.495278,0.467765,0.319636,-0.024415,-9.900204,-0.000393,0.003204,0.000000,-27.076021,-7.331439,14.110312,4636847439012167700.000000,0.016941,0.134781,-0.990725,0.003281
1588062525763110,10.129659,-2.458171,0.589818,-0.123629,-1.122763,0.335441,-17.935383,-12.717407,-3.239490,4636849586495815700.000000,0.609829,0.368402,-0.524205,0.466473,14.599450,0.140089,0.609362,1.443363,-1.831415,0.653844,-29.205916,-8.869176,11.830964,4636849264373268500.000000,0.345199,0.645050,-0.496776,0.466864,0.317392,-0.044339,-9.910166,-0.001743,0.004076,0.000000,-27.145756,-7.309989,13.799422,4636847439012167700.000000,0.016944,0.134782,-0.990725,0.003278
1588062525770922,10.169623,-2.905362,0.368706,-0.085673,-1.105732,0.291057,-17.978807,-12.641688,-3.124453,4636849586495815700.000000,0.607210,0.369630,-0.527378,0.465340,14.819381,0.681556,0.755667,1.626955,-2.040837,0.775839,-28.862921,-8.918612,12.372089,4636849630470980600.000000,0.335717,0.649416,-0.498480,0.465908,0.317392,-0.048830,-9.892488,-0.000393,0.003401,0.000000,-27.161472,-7.441739,13.984621,4636847439012167700.000000,0.016944,0.134783,-0.990725,0.003280
1588062525778734,10.448509,-2.756379,0.438023,0.047635,-1.099287,0.255794,-17.920467,-12.591007,-2.921496,4636849586495815700.000000,0.604463,0.371228,-0.530233,0.464399,14.875824,2.457657,0.237559,1.785102,-2.250007,0.834836,-28.381621,-8.638848,12.776742,4636850123366727700.000000,0.325279,0.654174,-0.500258,0.464749,0.317392,-0.018944,-9.887997,-0.002615,0.004076,-0.000872,-27.221243,-7.540664,14.038514,4636847439012167700.000000,0.016947,0.134788,-0.990724,0.003273
